{"learner":{"attributes":{"best_iteration":"10","best_msg":"[11]\ttrain-auc:0.736966\ttest-auc:0.536149","best_ntreelimit":"11","best_score":"0.53614857960351525","niter":"35"},"feature_names":[],"feature_types":[],"gradient_booster":{"model":{"gbtree_model_param":{"num_parallel_tree":"1","num_trees":"36","size_leaf_vector":"0"},"tree_info":[0,0,0,0,0,0,0,0,0,0,0,0,0,0,0,0,0,0,0,0,0,0,0,0,0,0,0,0,0,0,0,0,0,0,0,0],"trees":[{"base_weights":[1.9999641E1,2.050735E1,9.992038E0,2.0765997E1,2.7440493E0,5.626991E0,2.697076E1,2.0959852E1,-8.765141E-1,-9.214428E-1,1.938489E1,3.2997503E0,2.4009415E1,1.1745351E1,3.1387094E1,2.1145002E1,-8.6829746E-1,7.2514385E-1,1.3586546E1,-5.5975777E-1,1.938489E1],"categories":[],"categories_nodes":[],"categories_segments":[],"categories_sizes":[],"default_left":[1,1,1,1,1,1,1,1,0,0,0,1,0,1,0,0,0,0,0,0,0],"id":0,"left_children":[1,3,5,7,9,11,13,15,-1,-1,-1,17,-1,19,-1,-1,-1,-1,-1,-1,-1],"loss_changes":[3.4202812E3,3.0584375E3,2.5459126E3,2.8218125E3,6.817505E2,1.2135557E3,1.1416699E2,2.695125E3,0E0,0E0,0E0,7.312497E2,0E0,3.1284036E2,0E0,0E0,0E0,0E0,0E0,0E0,0E0],"parents":[2147483647,0,0,1,1,2,2,3,3,4,4,5,5,6,6,7,7,11,11,13,13],"right_children":[2,4,6,8,10,12,14,16,-1,-1,-1,18,-1,20,-1,-1,-1,-1,-1,-1,-1],"split_conditions":[-9.536743E-7,-9.536743E-7,-9.536743E-7,-9.536743E-7,-9.536743E-7,-9.536743E-7,-9.536743E-7,-9.536743E-7,-4.3825705E-2,-4.607214E-2,9.692445E-1,-9.536743E-7,1.2004708E0,-9.536743E-7,1.5693548E0,1.0572501E0,-4.3414872E-2,3.6257192E-2,6.793273E-1,-2.7987888E-2,9.692445E-1],"split_indices":[7318,6847,561,2664,454,9987,1888,5520,0,0,0,6418,0,1329,0,0,0,0,0,0,0],"split_type":[0,0,0,0,0,0,0,0,0,0,0,0,0,0,0,0,0,0,0,0,0],"sum_hessian":[7.1248785E2,6.770883E2,3.539954E1,6.6720435E2,9.883975E0,2.921905E1,6.18049E0,6.6131244E2,5.891907E0,8.873934E0,1.0100412E0,2.6982529E1,2.2365198E0,2.2124712E0,3.968019E0,6.5578125E2,5.531178E0,2.2437344E1,4.5451856E0,1.20243E0,1.0100412E0],"tree_param":{"num_deleted":"0","num_feature":"9998","num_nodes":"21","size_leaf_vector":"0"}},{"base_weights":[7.2383833E0,7.3607254E0,2.418906E0,7.5233502E0,3.8909705E0,9.392078E-1,1.0846754E1,7.5952277E0,-9.967241E-1,2.411217E0,1.1730084E1,-1.0370429E0,1.0737056E1,7.656323E0,-9.8552155E-1,1.457793E0,1.1376404E1,-5.470256E-1,1.2902098E1],"categories":[],"categories_nodes":[],"categories_segments":[],"categories_sizes":[],"default_left":[1,1,1,1,1,1,0,1,0,1,1,0,0,0,0,0,0,0,0],"id":1,"left_children":[1,3,5,7,9,11,-1,13,-1,15,17,-1,-1,-1,-1,-1,-1,-1,-1],"loss_changes":[1.0465312E3,9.637969E2,5.6567957E2,1.0364531E3,9.097462E2,7.9293207E2,0E0,8.81E2,0E0,5.756212E2,1.8809778E2,0E0,0E0,0E0,0E0,0E0,0E0,0E0,0E0],"parents":[2147483647,0,0,1,1,2,2,3,3,4,4,5,5,7,7,9,9,10,10],"right_children":[2,4,6,8,10,12,-1,14,-1,16,18,-1,-1,-1,-1,-1,-1,-1,-1],"split_conditions":[-9.536743E-7,-9.536743E-7,-9.536743E-7,-9.536743E-7,-9.536743E-7,-9.536743E-7,5.423377E-1,-9.536743E-7,-4.9836207E-2,-9.536743E-7,-9.536743E-7,-5.1852144E-2,5.368528E-1,3.8281617E-1,-4.927608E-2,7.288965E-2,5.688202E-1,-2.735128E-2,6.451049E-1],"split_indices":[4559,6401,257,3336,1896,1279,0,5134,0,7621,121,0,0,0,0,0,0,0,0],"split_type":[0,0,0,0,0,0,0,0,0,0,0,0,0,0,0,0,0,0,0],"sum_hessian":[1.804109E3,1.7589314E3,4.51777E1,1.6790664E3,7.986497E1,3.9375828E1,5.8018713E0,1.6651276E3,1.3938867E1,6.828307E1,1.1581894E1,3.3510777E1,5.8650517E0,1.6534625E3,1.1664922E1,6.2770233E1,5.512842E0,1.0557655E0,1.0526129E1],"tree_param":{"num_deleted":"0","num_feature":"9998","num_nodes":"19","size_leaf_vector":"0"}},{"base_weights":[5.019335E0,5.0607224E0,-1.033019E0,4.9814587E0,8.413656E0,5.0356483E0,-1.0432377E0,8.810908E0,-7.46112E-1,5.07854E0,-1.0271978E0,9.123592E0,-6.7067754E-1],"categories":[],"categories_nodes":[],"categories_segments":[],"categories_sizes":[],"default_left":[1,1,0,1,1,1,0,1,0,0,0,0,0],"id":2,"left_children":[1,3,-1,5,7,9,-1,11,-1,-1,-1,-1,-1],"loss_changes":[6.1884375E2,6.047461E2,0E0,7.8208984E2,2.057622E2,6.185078E2,0E0,1.6189697E2,0E0,0E0,0E0,0E0,0E0],"parents":[2147483647,0,0,1,1,3,3,4,4,5,5,7,7],"right_children":[2,4,-1,6,8,10,-1,12,-1,-1,-1,-1,-1],"split_conditions":[-9.536743E-7,-9.536743E-7,-5.165095E-2,-9.536743E-7,-9.536743E-7,-9.536743E-7,-5.2161884E-2,-9.536743E-7,-3.73056E-2,2.53927E-1,-5.1359892E-2,4.5617962E-1,-3.353388E-2],"split_indices":[1860,6492,0,2674,6619,7524,0,6954,0,0,0,0,0],"split_type":[0,0,0,0,0,0,0,0,0,0,0,0,0],"sum_hessian":[2.4486526E3,2.4321846E3,1.6468042E1,2.3784436E3,5.3740997E1,2.3574038E3,2.1039742E1,5.154367E1,2.1973255E0,2.341005E3,1.6399088E1,4.993468E1,1.6089908E0],"tree_param":{"num_deleted":"0","num_feature":"9998","num_nodes":"13","size_leaf_vector":"0"}},{"base_weights":[3.888485E0,3.921593E0,-1.0699846E0,3.9506745E0,-1.0575159E0,3.9779186E0,-1.0568837E0,4.004618E0,-1.0557083E0],"categories":[],"categories_nodes":[],"categories_segments":[],"categories_sizes":[],"default_left":[1,1,0,1,0,1,0,0,0],"id":3,"left_children":[1,3,-1,5,-1,7,-1,-1,-1],"loss_changes":[4.9445312E2,4.3376953E2,0E0,4.06625E2,0E0,3.9854297E2,0E0,0E0,0E0],"parents":[2147483647,0,0,1,1,3,3,5,5],"right_children":[2,4,-1,6,-1,8,-1,-1,-1],"split_conditions":[-9.536743E-7,-9.536743E-7,-5.349923E-2,-9.536743E-7,-5.2875794E-2,-9.536743E-7,-5.2844185E-2,2.0023091E-1,-5.2785415E-2],"split_indices":[1084,4927,0,1159,0,911,0,0,0],"split_type":[0,0,0,0,0,0,0,0,0],"sum_hessian":[2.9853618E3,2.9657683E3,1.959349E1,2.948752E3,1.7016354E1,2.9330002E3,1.5751679E1,2.9177285E3,1.527178E1],"tree_param":{"num_deleted":"0","num_feature":"9998","num_nodes":"9","size_leaf_vector":"0"}},{"base_weights":[3.1840703E0,3.2840643E0,2.0653746E0,3.3271656E0,-1.3126546E-1,1.4857222E0,4.263477E0,3.3595583E0,-1.0991395E0,-1.1145612E0,5.7780166E0,1.1310935E0,5.5162916E0,4.909851E0,-9.663794E-1,3.3854053E0,-1.0867368E0,6.029485E-1,4.473608E0,-7.802638E-1,6.437492E0,5.291376E0,-8.610431E-1],"categories":[],"categories_nodes":[],"categories_segments":[],"categories_sizes":[],"default_left":[1,1,1,1,1,1,1,1,0,0,0,1,1,1,0,0,0,0,0,0,0,0,0],"id":4,"left_children":[1,3,5,7,9,11,13,15,-1,-1,-1,17,19,21,-1,-1,-1,-1,-1,-1,-1,-1,-1],"loss_changes":[3.7916797E2,4.6639844E2,3.5779468E2,4.5190234E2,2.412541E2,3.1920108E2,2.0453528E2,3.6034766E2,0E0,0E0,0E0,3.689557E2,1.1032727E2,1.20731445E2,0E0,0E0,0E0,0E0,0E0,0E0,0E0,0E0,0E0],"parents":[2147483647,0,0,1,1,2,2,3,3,4,4,5,5,6,6,7,7,11,11,12,12,13,13],"right_children":[2,4,6,8,10,12,14,16,-1,-1,-1,18,20,22,-1,-1,-1,-1,-1,-1,-1,-1,-1],"split_conditions":[-9.536743E-7,-9.536743E-7,-9.536743E-7,-9.536743E-7,-9.536743E-7,-9.536743E-7,-9.536743E-7,-9.536743E-7,-5.4956973E-2,-5.572806E-2,2.8890082E-1,-9.536743E-7,-9.536743E-7,-9.536743E-7,-4.831897E-2,1.6927026E-1,-5.4336842E-2,3.0147424E-2,2.236804E-1,-3.901319E-2,3.218746E-1,2.645688E-1,-4.3052156E-2],"split_indices":[6952,5645,4789,1738,537,8527,7119,312,0,0,0,3528,4775,286,0,0,0,0,0,0,0,0,0],"split_type":[0,0,0,0,0,0,0,0,0,0,0,0,0,0,0,0,0,0,0,0,0,0,0],"sum_hessian":[3.449202E3,3.1644167E3,2.8478522E2,3.1250051E3,3.941154E1,2.2668338E2,5.8101837E1,3.102541E3,2.246415E1,3.4484722E1,4.9268184E0,2.0952867E2,1.7154703E1,5.1765205E1,6.336634E0,3.084847E3,1.7694084E1,1.8195816E2,2.7570513E1,2.2089763E0,1.4945726E1,4.8633068E1,3.1321352E0],"tree_param":{"num_deleted":"0","num_feature":"9998","num_nodes":"23","size_leaf_vector":"0"}},{"base_weights":[2.6980543E0,2.7188816E0,-1.0840262E0,2.7389822E0,-1.0743624E0,2.7587426E0,-1.1019051E0,2.8171332E0,1.4665809E0],"categories":[],"categories_nodes":[],"categories_segments":[],"categories_sizes":[],"default_left":[1,1,0,1,0,1,0,0,0],"id":5,"left_children":[1,3,-1,5,-1,7,-1,-1,-1],"loss_changes":[3.0665234E2,2.9532617E2,0E0,2.925664E2,0E0,2.822422E2,0E0,0E0,0E0],"parents":[2147483647,0,0,1,1,3,3,5,5],"right_children":[2,4,-1,6,-1,8,-1,-1,-1],"split_conditions":[-9.536743E-7,-9.536743E-7,-5.4201312E-2,-9.536743E-7,-5.371812E-2,-9.536743E-7,-5.5095255E-2,1.4085667E-1,7.332905E-2],"split_indices":[1084,1860,0,6365,0,9708,0,0,0],"split_type":[0,0,0,0,0,0,0,0,0],"sum_hessian":[3.8545276E3,3.833697E3,2.0830559E1,3.8137656E3,1.9931446E1,3.794526E3,1.9239893E1,3.6293413E3,1.6518448E2],"tree_param":{"num_deleted":"0","num_feature":"9998","num_nodes":"9","size_leaf_vector":"0"}},{"base_weights":[2.3395283E0,2.3637156E0,-1.8837126E-1,2.3882778E0,-1.9163972E-1,-1.1565868E0,4.6049933E0,2.4124506E0,-1.0996305E0,-1.1541432E0,3.9828846E0,2.4292474E0,-1.1394335E0],"categories":[],"categories_nodes":[],"categories_segments":[],"categories_sizes":[],"default_left":[1,1,1,1,1,0,0,1,0,0,0,0,0],"id":6,"left_children":[1,3,5,7,9,-1,-1,11,-1,-1,-1,-1,-1],"loss_changes":[2.5806445E2,2.6241016E2,1.9495058E2,3.5118945E2,1.6796797E2,0E0,0E0,2.477168E2,0E0,0E0,0E0,0E0,0E0],"parents":[2147483647,0,0,1,1,2,2,3,3,4,4,7,7],"right_children":[2,4,6,8,10,-1,-1,12,-1,-1,-1,-1,-1],"split_conditions":[-9.536743E-7,-9.536743E-7,-9.536743E-7,-9.536743E-7,-9.536743E-7,-5.782934E-2,2.3024967E-1,-9.536743E-7,-5.4981526E-2,-5.770716E-2,1.9914423E-1,1.2146237E-1,-5.6971677E-2],"split_indices":[7693,392,2756,2674,466,0,0,4655,0,0,0,0,0],"split_type":[0,0,0,0,0,0,0,0,0,0,0,0,0],"sum_hessian":[4.2123843E3,4.172526E3,3.985846E1,4.1328657E3,3.9659878E1,3.3791584E1,6.0668774E0,4.1047266E3,2.813938E1,3.2816933E1,6.842943E0,4.0857212E3,1.9005293E1],"tree_param":{"num_deleted":"0","num_feature":"9998","num_nodes":"13","size_leaf_vector":"0"}},{"base_weights":[2.0628486E0,2.0787578E0,-1.1603469E0,2.0946133E0,-1.1465911E0,2.110181E0,-1.1505234E0,2.1253872E0,-1.1133434E0],"categories":[],"categories_nodes":[],"categories_segments":[],"categories_sizes":[],"default_left":[1,1,0,1,0,1,0,0,0],"id":7,"left_children":[1,3,-1,5,-1,7,-1,-1,-1],"loss_changes":[2.3471289E2,2.3295508E2,0E0,2.2908984E2,0E0,2.212539E2,0E0,0E0,0E0],"parents":[2147483647,0,0,1,1,3,3,5,5],"right_children":[2,4,-1,6,-1,8,-1,-1,-1],"split_conditions":[-9.536743E-7,-9.536743E-7,-5.8017343E-2,-9.536743E-7,-5.7329554E-2,-9.536743E-7,-5.752617E-2,1.0626936E-1,-5.566717E-2],"split_indices":[8523,7449,0,1560,0,4927,0,0,0],"split_type":[0,0,0,0,0,0,0,0,0],"sum_hessian":[4.5292017E3,4.5073096E3,2.1892134E1,4.4856094E3,2.1700365E1,4.4645415E3,2.1067772E1,4.443919E3,2.0622446E1],"tree_param":{"num_deleted":"0","num_feature":"9998","num_nodes":"9","size_leaf_vector":"0"}},{"base_weights":[1.841637E0,1.8619946E0,-3.2018438E-1,1.8763698E0,-1.1100768E0,-1.1778842E0,3.9116702E0,1.8901353E0,-1.1870557E0,1.9039267E0,-1.0984112E0],"categories":[],"categories_nodes":[],"categories_segments":[],"categories_sizes":[],"default_left":[1,1,1,1,0,0,0,1,0,0,0],"id":8,"left_children":[1,3,5,7,-1,-1,-1,9,-1,-1,-1],"loss_changes":[2.1238281E2,2.0577148E2,1.7065465E2,2.0233594E2,0E0,0E0,0E0,1.9680469E2,0E0,0E0,0E0],"parents":[2147483647,0,0,1,1,2,2,3,3,7,7],"right_children":[2,4,6,8,-1,-1,-1,10,-1,-1,-1],"split_conditions":[-9.536743E-7,-9.536743E-7,-9.536743E-7,-9.536743E-7,-5.550384E-2,-5.8894213E-2,1.955835E-1,-9.536743E-7,-5.9352785E-2,9.519634E-2,-5.492056E-2],"split_indices":[6482,1084,2304,3613,0,0,0,1860,0,0,0],"split_type":[0,0,0,0,0,0,0,0,0,0,0],"sum_hessian":[4.811292E3,4.766545E3,4.4747288E1,4.7439683E3,2.2576696E1,3.780645E1,6.940838E0,4.723128E3,2.0840271E1,4.701793E3,2.133484E1],"tree_param":{"num_deleted":"0","num_feature":"9998","num_nodes":"11","size_leaf_vector":"0"}},{"base_weights":[1.6606176E0,1.6890612E0,3.0005112E-1,1.7022635E0,-1.1607779E0,-2.7650326E-1,2.9187787E0,1.7150835E0,-1.1557518E0,-1.1538259E0,2.920129E0,3.315101E0,-8.1188846E-1,1.7278965E0,-1.1483581E0,-9.0207565E-1,3.473845E0],"categories":[],"categories_nodes":[],"categories_segments":[],"categories_sizes":[],"default_left":[1,1,1,1,0,1,1,1,0,0,1,0,0,0,0,0,0],"id":9,"left_children":[1,3,5,7,-1,9,11,13,-1,-1,15,-1,-1,-1,-1,-1,-1],"loss_changes":[1.9541602E2,1.8854688E2,1.5916975E2,1.8284863E2,0E0,2.4700793E2,3.0802048E1,1.8230078E2,0E0,0E0,4.332788E1,0E0,0E0,0E0,0E0,0E0,0E0],"parents":[2147483647,0,0,1,1,2,2,3,3,5,5,6,6,7,7,10,10],"right_children":[2,4,6,8,-1,10,12,14,-1,-1,16,-1,-1,-1,-1,-1,-1],"split_conditions":[-9.536743E-7,-9.536743E-7,-9.536743E-7,-9.536743E-7,-5.8038898E-2,-9.536743E-7,-9.536743E-7,-9.536743E-7,-5.7787593E-2,-5.7691295E-2,-9.536743E-7,1.6575505E-1,-4.0594425E-2,8.6394824E-2,-5.7417907E-2,-4.5103785E-2,1.7369226E-1],"split_indices":[4559,911,1279,1159,0,257,2580,6365,0,0,2533,0,0,0,0,0,0],"split_type":[0,0,0,0,0,0,0,0,0,0,0,0,0,0,0,0,0],"sum_hessian":[5.0616714E3,4.957784E3,1.0388715E2,4.935323E3,2.24609E1,8.5874855E1,1.8012299E1,4.913682E3,2.1641157E1,6.788322E1,1.7991644E1,1.638324E1,1.6290586E0,4.8921875E3,2.149449E1,2.1970005E0,1.5794643E1],"tree_param":{"num_deleted":"0","num_feature":"9998","num_nodes":"17","size_leaf_vector":"0"}},{"base_weights":[1.5094972E0,1.5217515E0,-1.2065774E0,1.5338013E0,-1.2130029E0,1.5457695E0,-1.1844472E0,1.5239321E0,3.0716379E0],"categories":[],"categories_nodes":[],"categories_segments":[],"categories_sizes":[],"default_left":[1,1,0,1,0,1,0,0,0],"id":10,"left_children":[1,3,-1,5,-1,7,-1,-1,-1],"loss_changes":[1.7772168E2,1.7523145E2,0E0,1.7225098E2,0E0,1.6912012E2,0E0,0E0,0E0],"parents":[2147483647,0,0,1,1,3,3,5,5],"right_children":[2,4,-1,6,-1,8,-1,-1,-1],"split_conditions":[-9.536743E-7,-9.536743E-7,-6.032887E-2,-9.536743E-7,-6.0650147E-2,-9.536743E-7,-5.922236E-2,7.61966E-2,1.535819E-1],"split_indices":[5070,7089,0,8523,0,4326,0,0,0],"split_type":[0,0,0,0,0,0,0,0,0],"sum_hessian":[5.283424E3,5.260131E3,2.3292984E1,5.2374927E3,2.2638157E1,5.214963E3,2.2529465E1,5.143353E3,7.160986E1],"tree_param":{"num_deleted":"0","num_feature":"9998","num_nodes":"9","size_leaf_vector":"0"}},{"base_weights":[1.3803608E0,1.5324385E0,1.1717132E0,1.55913E0,-1.2544253E0,1.2742785E0,-2.728584E-1,1.5818844E0,-1.2658054E0,1.3288037E0,-1.2491385E0,-9.605929E-1,2.0753756E0,1.6026793E0,-1.2440917E0,1.3649414E0,-1.2410308E0,-1.2851285E0,3.069198E0,-1.111439E0,2.8233278E0],"categories":[],"categories_nodes":[],"categories_segments":[],"categories_sizes":[],"default_left":[1,1,1,1,0,1,1,1,0,1,0,1,1,0,0,0,0,0,0,0,0],"id":11,"left_children":[1,3,5,7,-1,9,11,13,-1,15,-1,17,19,-1,-1,-1,-1,-1,-1,-1,-1],"loss_changes":[1.7221875E2,2.3766992E2,3.4353418E2,2.0378906E2,0E0,2.9925317E2,2.5130823E2,1.8502344E2,0E0,1.9835474E2,0E0,1.61E2,8.72487E1,0E0,0E0,0E0,0E0,0E0,0E0,0E0,0E0],"parents":[2147483647,0,0,1,1,2,2,3,3,5,5,6,6,7,7,9,9,11,11,12,12],"right_children":[2,4,6,8,-1,10,12,14,-1,16,-1,18,20,-1,-1,-1,-1,-1,-1,-1,-1],"split_conditions":[-9.536743E-7,-9.536743E-7,-9.536743E-7,-9.536743E-7,-6.272127E-2,-9.536743E-7,-9.536743E-7,-9.536743E-7,-6.329027E-2,-9.536743E-7,-6.2456924E-2,-9.536743E-7,-9.536743E-7,8.013397E-2,-6.220459E-2,6.824707E-2,-6.2051542E-2,-6.425642E-2,1.5345989E-1,-5.557195E-2,1.4116639E-1],"split_indices":[577,6561,3120,3254,0,4188,2955,1758,0,2602,0,717,8031,0,0,0,0,0,0,0,0],"split_type":[0,0,0,0,0,0,0,0,0,0,0,0,0,0,0,0,0,0,0,0,0],"sum_hessian":[5.483094E3,3.1678142E3,2.31528E3,3.1381982E3,2.9615902E1,2.161902E3,1.5337807E2,3.113559E3,2.4639204E1,2.11664E3,4.5262276E1,1.19090576E2,3.428749E1,3.091245E3,2.2313936E1,2.0877502E3,2.8889652E1,1.1084488E2,8.245698E0,6.4252644E0,2.7862226E1],"tree_param":{"num_deleted":"0","num_feature":"9998","num_nodes":"21","size_leaf_vector":"0"}},{"base_weights":[1.2692229E0,1.2422959E0,2.3546236E0,1.2586395E0,-1.160758E0,2.4790595E0,-1.0686499E0,1.2968738E0,2.682816E-1,2.3108754E0,5.5406046E0,1.3232232E0,-3.6245355E-1,-4.530818E-1,2.1521685E0,2.4192698E0,-1.0347581E0],"categories":[],"categories_nodes":[],"categories_segments":[],"categories_sizes":[],"default_left":[1,1,1,1,0,1,0,1,1,1,0,0,0,0,0,0,0],"id":12,"left_children":[1,3,5,7,-1,9,-1,11,13,15,-1,-1,-1,-1,-1,-1,-1],"loss_changes":[1.6250293E2,2.184668E2,6.0541626E1,2.0747656E2,0E0,5.4874756E1,0E0,2.315166E2,2.799386E2,4.830945E1,0E0,0E0,0E0,0E0,0E0,0E0,0E0],"parents":[2147483647,0,0,1,1,2,2,3,3,5,5,7,7,8,8,9,9],"right_children":[2,4,6,8,-1,10,-1,12,14,16,-1,-1,-1,-1,-1,-1,-1],"split_conditions":[-9.536743E-7,-9.536743E-7,-9.536743E-7,-9.536743E-7,-5.8037903E-2,-9.536743E-7,-5.3432494E-2,-9.536743E-7,-9.536743E-7,-9.536743E-7,2.7703023E-1,6.616116E-2,-1.8122679E-2,-2.265409E-2,1.0760843E-1,1.2096349E-1,-5.1737905E-2],"split_indices":[6492,2674,2377,6401,0,6777,0,281,7266,857,0,0,0,0,0,0,0],"split_type":[0,0,0,0,0,0,0,0,0,0,0,0,0,0,0,0,0],"sum_hessian":[5.65924E3,5.5243354E3,1.3490482E2,5.48749E3,3.6845146E1,1.3043918E2,4.465631E0,5.2832144E3,2.0427614E2,1.25310165E2,5.1290207E0,5.2008296E3,8.2384346E1,1.4826366E2,5.6012474E1,1.21645874E2,3.664289E0],"tree_param":{"num_deleted":"0","num_feature":"9998","num_nodes":"17","size_leaf_vector":"0"}},{"base_weights":[1.172482E0,1.1909482E0,-2.6071104E-1,1.2038933E0,-1.2715902E0,-1.3108568E0,2.766627E0,1.2519703E0,6.262442E-1,-9.149035E-1,3.3020065E0,1.2719159E0,-5.8707523E-1,2.8464794E-1,1.8190142E0],"categories":[],"categories_nodes":[],"categories_segments":[],"categories_sizes":[],"default_left":[1,1,1,1,0,0,1,1,1,0,0,0,0,0,0],"id":13,"left_children":[1,3,5,7,-1,-1,9,11,13,-1,-1,-1,-1,-1,-1],"loss_changes":[1.5424414E2,1.8459033E2,2.4145549E2,1.5787598E2,0E0,0E0,4.1630005E1,1.9416797E2,1.7914716E2,0E0,0E0,0E0,0E0,0E0,0E0],"parents":[2147483647,0,0,1,1,2,2,3,3,6,6,7,7,8,8],"right_children":[2,4,6,8,-1,-1,10,12,14,-1,-1,-1,-1,-1,-1],"split_conditions":[-9.536743E-7,-9.536743E-7,-9.536743E-7,-9.536743E-7,-6.3579515E-2,-6.554284E-2,-9.536743E-7,-9.536743E-7,-9.536743E-7,-4.5745175E-2,1.6510032E-1,6.3595794E-2,-2.9353762E-2,1.4232397E-2,9.095071E-2],"split_indices":[2321,5942,3835,6952,0,0,6434,5645,4789,0,0,0,0,0,0],"split_type":[0,0,0,0,0,0,0,0,0,0,0,0,0,0,0],"sum_hessian":[5.815343E3,5.7415337E3,7.380903E1,5.712018E3,2.9515827E1,5.5220665E1,1.8588366E1,5.272064E3,4.399542E2,2.2699802E0,1.6318384E1,5.2158037E3,5.626023E1,3.4296997E2,9.69842E1],"tree_param":{"num_deleted":"0","num_feature":"9998","num_nodes":"15","size_leaf_vector":"0"}},{"base_weights":[1.0868928E0,1.1070713E0,-1.4008777E-1,1.1282611E0,-4.1555703E-1,-8.414666E-1,2.7309277E0,1.1461993E0,-2.769306E-1,-1.3306388E0,1.8916117E0,-1.335353E0,2.869082E0,1.1652812E0,-3.1275582E-1,-1.3376944E0,1.9262935E0,-1.0759258E0,2.4826667E0],"categories":[],"categories_nodes":[],"categories_segments":[],"categories_sizes":[],"default_left":[1,1,1,1,1,1,0,1,1,0,1,0,0,0,0,0,0,0,0],"id":14,"left_children":[1,3,5,7,9,11,-1,13,15,-1,17,-1,-1,-1,-1,-1,-1,-1,-1],"loss_changes":[1.4762646E2,1.8954102E2,1.981462E2,1.4601123E2,1.7387498E2,1.4847493E2,0E0,1.5925342E2,1.747295E2,0E0,4.3824165E1,0E0,0E0,0E0,0E0,0E0,0E0,0E0,0E0],"parents":[2147483647,0,0,1,1,2,2,3,3,4,4,5,5,7,7,8,8,10,10],"right_children":[2,4,6,8,10,12,-1,14,16,-1,18,-1,-1,-1,-1,-1,-1,-1,-1],"split_conditions":[-9.536743E-7,-9.536743E-7,-9.536743E-7,-9.536743E-7,-9.536743E-7,-9.536743E-7,1.3654639E-1,-9.536743E-7,-9.536743E-7,-6.653194E-2,-9.536743E-7,-6.6767655E-2,1.434541E-1,5.8264058E-2,-1.563779E-2,-6.688472E-2,9.6314676E-2,-5.379629E-2,1.2413334E-1],"split_indices":[8080,518,4487,2484,2812,305,0,6792,2995,0,6593,0,0,0,0,0,0,0,0],"split_type":[0,0,0,0,0,0,0,0,0,0,0,0,0,0,0,0,0,0,0],"sum_hessian":[5.955389E3,5.85913E3,9.625936E1,5.7789653E3,8.016428E1,7.79286E1,1.8330769E1,5.7063047E3,7.266082E1,5.770162E1,2.246267E1,6.933941E1,8.589186E0,5.6328335E3,7.347123E1,4.9311943E1,2.3348873E1,3.5946243E0,1.8868044E1],"tree_param":{"num_deleted":"0","num_feature":"9998","num_nodes":"19","size_leaf_vector":"0"}},{"base_weights":[1.0106391E0,1.0207553E0,-1.2790725E0,9.9650073E-1,2.005635E0,1.0104336E0,-1.168938E0,2.1102822E0,-1.0841914E0,1.0236077E0,-1.210711E0,2.1996043E0,-1.0176218E0],"categories":[],"categories_nodes":[],"categories_segments":[],"categories_sizes":[],"default_left":[1,1,0,1,1,1,0,1,0,0,0,0,0],"id":15,"left_children":[1,3,-1,5,7,9,-1,11,-1,-1,-1,-1,-1],"loss_changes":[1.4217725E2,1.426543E2,0E0,1.7954834E2,4.9029053E1,1.7314258E2,0E0,4.139795E1,0E0,0E0,0E0,0E0,0E0],"parents":[2147483647,0,0,1,1,3,3,4,4,5,5,7,7],"right_children":[2,4,-1,6,8,10,-1,12,-1,-1,-1,-1,-1],"split_conditions":[-9.536743E-7,-9.536743E-7,-6.395363E-2,-9.536743E-7,-9.536743E-7,-9.536743E-7,-5.8446903E-2,-9.536743E-7,-5.420957E-2,5.118039E-2,-6.053555E-2,1.0998022E-1,-5.0881088E-2],"split_indices":[9054,6492,0,2674,2377,7524,0,4210,0,0,0,0,0],"split_type":[0,0,0,0,0,0,0,0,0,0,0,0,0],"sum_hessian":[6.080698E3,6.0545034E3,2.6195284E1,5.910947E3,1.4355643E2,5.873688E3,3.7258984E1,1.3916032E2,4.396097E0,5.839591E3,3.4096836E1,1.3558525E2,3.5750723E0],"tree_param":{"num_deleted":"0","num_feature":"9998","num_nodes":"13","size_leaf_vector":"0"}},{"base_weights":[9.42399E-1,9.5656663E-1,-6.281211E-1,9.6678483E-1,-1.289481E0,-1.2975554E0,2.482079E0,9.809666E-1,-6.371996E-1,9.931535E-1,-1.1571076E0,-1.2930111E0,2.1162682E0],"categories":[],"categories_nodes":[],"categories_segments":[],"categories_sizes":[],"default_left":[1,1,1,1,0,0,0,1,1,0,0,0,0],"id":16,"left_children":[1,3,5,7,-1,-1,-1,9,11,-1,-1,-1,-1],"loss_changes":[1.3838672E2,1.4210645E2,1.19746796E2,1.3961768E2,0E0,0E0,0E0,1.5897705E2,1.0053143E2,0E0,0E0,0E0,0E0],"parents":[2147483647,0,0,1,1,2,2,3,3,7,7,8,8],"right_children":[2,4,6,8,-1,-1,-1,10,12,-1,-1,-1,-1],"split_conditions":[-9.536743E-7,-9.536743E-7,-9.536743E-7,-9.536743E-7,-6.447405E-2,-6.487777E-2,1.24103956E-1,-9.536743E-7,-9.536743E-7,4.9657676E-2,-5.785538E-2,-6.465056E-2,1.0581341E-1],"split_indices":[7693,4655,2756,392,0,0,0,2674,466,0,0,0,0],"split_type":[0,0,0,0,0,0,0,0,0,0,0,0,0],"sum_hessian":[6.191477E3,6.1365107E3,5.4966362E1,6.1092866E3,2.722416E1,4.5710514E1,9.255849E0,6.056129E3,5.315742E1,6.0223374E3,3.379152E1,4.3360397E1,9.797024E0],"tree_param":{"num_deleted":"0","num_feature":"9998","num_nodes":"13","size_leaf_vector":"0"}},{"base_weights":[8.8077176E-1,8.902674E-1,-1.3568052E0,8.999988E-1,-1.2686626E0,9.0960854E-1,-1.2836671E0,9.1921854E-1,-1.2476853E0],"categories":[],"categories_nodes":[],"categories_segments":[],"categories_sizes":[],"default_left":[1,1,0,1,0,1,0,0,0],"id":17,"left_children":[1,3,-1,5,-1,7,-1,-1,-1],"loss_changes":[1.3488037E2,1.3277344E2,0E0,1.3206592E2,0E0,1.299126E2,0E0,0E0,0E0],"parents":[2147483647,0,0,1,1,3,3,5,5],"right_children":[2,4,-1,6,-1,8,-1,-1,-1],"split_conditions":[-9.536743E-7,-9.536743E-7,-6.784026E-2,-9.536743E-7,-6.343313E-2,-9.536743E-7,-6.4183354E-2,4.596093E-2,-6.2384266E-2],"split_indices":[336,7449,0,1560,0,911,0,0,0],"split_type":[0,0,0,0,0,0,0,0,0],"sum_hessian":[6.2903447E3,6.264363E3,2.5981869E1,6.2368335E3,2.7529482E1,6.2100874E3,2.6745695E1,6.1831177E3,2.6969736E1],"tree_param":{"num_deleted":"0","num_feature":"9998","num_nodes":"9","size_leaf_vector":"0"}},{"base_weights":[8.245906E-1,8.34446E-1,-1.2338755E0,8.4377533E-1,-1.3202796E0,8.529722E-1,-1.3350854E0,8.62602E-1,-1.2037566E0],"categories":[],"categories_nodes":[],"categories_segments":[],"categories_sizes":[],"default_left":[1,1,0,1,0,1,0,0,0],"id":18,"left_children":[1,3,-1,5,-1,7,-1,-1,-1],"loss_changes":[1.3047998E2,1.2878564E2,0E0,1.2787207E2,0E0,1.2578369E2,0E0,0E0,0E0],"parents":[2147483647,0,0,1,1,3,3,5,5],"right_children":[2,4,-1,6,-1,8,-1,-1,-1],"split_conditions":[-9.536743E-7,-9.536743E-7,-6.1693776E-2,-9.536743E-7,-6.6013984E-2,-9.536743E-7,-6.6754274E-2,4.31301E-2,-6.0187828E-2],"split_indices":[4927,3613,0,6965,0,1084,0,0,0],"split_type":[0,0,0,0,0,0,0,0,0],"sum_hessian":[6.3799785E3,6.3501704E3,2.9808243E1,6.3234004E3,2.6769966E1,6.2974272E3,2.597277E1,6.2686577E3,2.8769764E1],"tree_param":{"num_deleted":"0","num_feature":"9998","num_nodes":"9","size_leaf_vector":"0"}},{"base_weights":[7.73392E-1,8.089019E-1,2.2348846E-1,8.2029593E-1,-1.3530856E0,-6.4641364E-2,1.8442756E0,8.352814E-1,-7.7778053E-1,-2.9637715E-1,2.1454403E0,2.187663E0,-1.192027E0,8.4615916E-1,-1.3702811E0,-1.3929394E0,1.9054068E0,-4.7724983E-1,2.0233963E0,-9.7960025E-1,2.3807268E0,-1.1048855E0,2.4485579E0],"categories":[],"categories_nodes":[],"categories_segments":[],"categories_sizes":[],"default_left":[1,1,1,1,0,1,1,1,1,1,1,1,0,0,0,0,0,0,0,0,0,0,0],"id":19,"left_children":[1,3,5,7,-1,9,11,13,15,17,19,21,-1,-1,-1,-1,-1,-1,-1,-1,-1,-1,-1],"loss_changes":[1.2597241E2,1.5059302E2,1.837699E2,1.452229E2,0E0,1.7213956E2,6.453143E1,1.4466309E2,9.608053E1,1.2850465E2,2.5788483E1,4.8842896E1,0E0,0E0,0E0,0E0,0E0,0E0,0E0,0E0,0E0,0E0,0E0],"parents":[2147483647,0,0,1,1,2,2,3,3,5,5,6,6,7,7,8,8,9,9,10,10,11,11],"right_children":[2,4,6,8,-1,10,12,14,16,18,20,22,-1,-1,-1,-1,-1,-1,-1,-1,-1,-1,-1],"split_conditions":[-9.536743E-7,-9.536743E-7,-9.536743E-7,-9.536743E-7,-6.765428E-2,-9.536743E-7,-9.536743E-7,-9.536743E-7,-9.536743E-7,-9.536743E-7,-9.536743E-7,-9.536743E-7,-5.9601348E-2,4.2307958E-2,-6.851406E-2,-6.964698E-2,9.527034E-2,-2.3862492E-2,1.0116982E-1,-4.8980013E-2,1.1903634E-1,-5.5244274E-2,1.22427896E-1],"split_indices":[134,6360,1486,5851,0,4026,7799,7467,466,3450,7041,2116,0,0,0,0,0,0,0,0,0,0,0],"split_type":[0,0,0,0,0,0,0,0,0,0,0,0,0,0,0,0,0,0,0,0,0,0,0],"sum_hessian":[6.4594614E3,6.067203E3,3.922587E2,6.0360127E3,3.1190262E1,3.338668E2,5.8391903E1,5.9804106E3,5.5601948E1,3.0296558E2,3.0901234E1,5.2710194E1,5.6817074E0,5.9516733E3,2.8737135E1,4.5623074E1,9.978875E0,2.8178876E2,2.1176798E1,1.9421711E0,2.8959063E1,3.6324823E0,4.9077713E1],"tree_param":{"num_deleted":"0","num_feature":"9998","num_nodes":"23","size_leaf_vector":"0"}},{"base_weights":[7.266715E-1,7.053283E-1,1.6116681E0,7.175061E-1,-1.2779486E0,1.7094486E0,-1.1516244E0,7.28745E-1,-1.3605063E0,1.7935245E0,-1.0857291E0,7.843739E-1,3.2999256E-1,1.8722017E0,-1.0364608E0],"categories":[],"categories_nodes":[],"categories_segments":[],"categories_sizes":[],"default_left":[1,1,1,1,0,1,0,1,0,1,0,0,0,0,0],"id":20,"left_children":[1,3,5,7,-1,9,-1,11,-1,13,-1,-1,-1,-1,-1],"loss_changes":[1.22198975E2,1.5494922E2,4.330493E1,1.490437E2,0E0,3.6766052E1,0E0,1.3961938E2,0E0,3.4049805E1,0E0,0E0,0E0,0E0,0E0],"parents":[2147483647,0,0,1,1,2,2,3,3,5,5,7,7,9,9],"right_children":[2,4,6,8,-1,10,-1,12,-1,14,-1,-1,-1,-1,-1],"split_conditions":[-9.536743E-7,-9.536743E-7,-9.536743E-7,-9.536743E-7,-6.389743E-2,-9.536743E-7,-5.7581224E-2,-9.536743E-7,-6.802531E-2,-9.536743E-7,-5.4286458E-2,3.9218694E-2,1.649963E-2,9.3610086E-2,-5.182304E-2],"split_indices":[6492,5134,857,7137,0,2377,0,5509,0,6954,0,0,0,0,0],"split_type":[0,0,0,0,0,0,0,0,0,0,0,0,0,0,0],"sum_hessian":[6.52861E3,6.3766235E3,1.5198628E2,6.338343E3,3.8280807E1,1.4716031E2,4.8259673E0,6.3048926E3,3.345048E1,1.4321103E2,3.9492853E0,5.53215E3,7.7274255E2,1.3966656E2,3.5444689E0],"tree_param":{"num_deleted":"0","num_feature":"9998","num_nodes":"15","size_leaf_vector":"0"}},{"base_weights":[6.8366754E-1,6.5810823E-1,1.3983142E0,6.753455E-1,-8.6046785E-1,1.6461319E0,-1.3484164E0,6.876724E-1,-1.4159985E0,-1.3881855E0,2.390848E0,1.8267367E0,-1.3124748E0,7.033705E-1,-8.786927E-1,1.9482106E0,-1.2568781E0],"categories":[],"categories_nodes":[],"categories_segments":[],"categories_sizes":[],"default_left":[1,1,1,1,1,1,0,1,0,0,0,1,0,0,0,0,0],"id":21,"left_children":[1,3,5,7,9,11,-1,13,-1,-1,-1,15,-1,-1,-1,-1,-1],"loss_changes":[1.194729E2,1.6720361E2,1.565339E2,1.632456E2,1.2665331E2,1.1374963E2,0E0,1.5450415E2,0E0,0E0,0E0,7.6173645E1,0E0,0E0,0E0,0E0,0E0],"parents":[2147483647,0,0,1,1,2,2,3,3,4,4,5,5,7,7,11,11],"right_children":[2,4,6,8,10,12,-1,14,-1,-1,-1,16,-1,-1,-1,-1,-1],"split_conditions":[-9.536743E-7,-9.536743E-7,-9.536743E-7,-9.536743E-7,-9.536743E-7,-9.536743E-7,-6.7420825E-2,-9.536743E-7,-7.0799924E-2,-6.940927E-2,1.195424E-1,-9.536743E-7,-6.5623745E-2,3.5168525E-2,-4.3934636E-2,9.741053E-2,-6.284391E-2],"split_indices":[3309,2321,829,2083,15,5509,0,6345,0,0,0,181,0,0,0,0,0],"split_type":[0,0,0,0,0,0,0,0,0,0,0,0,0,0,0,0,0],"sum_hessian":[6.590138E3,6.364435E3,2.2570314E2,6.2935527E3,7.088252E1,2.0739232E2,1.8310822E1,6.2573413E3,3.6211037E1,6.1477253E1,9.405271E0,1.9582121E2,1.1571115E1,6.1957983E3,6.154335E1,1.8875377E2,7.0674343E0],"tree_param":{"num_deleted":"0","num_feature":"9998","num_nodes":"17","size_leaf_vector":"0"}},{"base_weights":[6.438717E-1,6.2808967E-1,1.767952E0,6.403402E-1,-1.4492911E0,1.8935444E0,-1.1530852E0,6.5270203E-1,-1.4116265E0,2.000519E0,-1.0962667E0,6.702912E-1,-6.390026E-1,-1.0172981E0,2.078575E0],"categories":[],"categories_nodes":[],"categories_segments":[],"categories_sizes":[],"default_left":[1,1,1,1,0,1,0,1,0,1,0,0,0,0,0],"id":22,"left_children":[1,3,5,7,-1,9,-1,11,-1,13,-1,-1,-1,-1,-1],"loss_changes":[1.16796875E2,1.6776709E2,3.5740387E1,1.6625952E2,0E0,3.0363647E1,0E0,1.476477E2,0E0,2.222876E1,0E0,0E0,0E0,0E0,0E0],"parents":[2147483647,0,0,1,1,2,2,3,3,5,5,7,7,9,9],"right_children":[2,4,6,8,-1,10,-1,12,-1,14,-1,-1,-1,-1,-1],"split_conditions":[-9.536743E-7,-9.536743E-7,-9.536743E-7,-9.536743E-7,-7.2464556E-2,-9.536743E-7,-5.765426E-2,-9.536743E-7,-7.0581324E-2,-9.536743E-7,-5.4813337E-2,3.351456E-2,-3.195013E-2,-5.0864905E-2,1.03928745E-1],"split_indices":[4326,3041,5728,4193,0,2186,0,518,0,2256,0,0,0,0,0],"split_type":[0,0,0,0,0,0,0,0,0,0,0,0,0,0,0],"sum_hessian":[6.6452896E3,6.554819E3,9.047074E1,6.5170786E3,3.774013E1,8.707849E1,3.3922558E0,6.47873E3,3.834842E1,8.438992E1,2.6885636E0,6.392169E3,8.656111E1,1.824321E0,8.2565605E1],"tree_param":{"num_deleted":"0","num_feature":"9998","num_nodes":"15","size_leaf_vector":"0"}},{"base_weights":[6.0692495E-1,6.1523926E-1,-1.4335647E0,6.2358904E-1,-1.4343355E0,6.318961E-1,-1.4066573E0,6.402929E-1,-1.3453234E0],"categories":[],"categories_nodes":[],"categories_segments":[],"categories_sizes":[],"default_left":[1,1,0,1,0,1,0,0,0],"id":23,"left_children":[1,3,-1,5,-1,7,-1,-1,-1],"loss_changes":[1.14487305E2,1.15038086E2,0E0,1.1293335E2,0E0,1.107207E2,0E0,0E0,0E0],"parents":[2147483647,0,0,1,1,3,3,5,5],"right_children":[2,4,-1,6,-1,8,-1,-1,-1],"split_conditions":[-9.536743E-7,-9.536743E-7,-7.1678236E-2,-9.536743E-7,-7.171678E-2,-9.536743E-7,-7.033287E-2,3.2014646E-2,-6.726617E-2],"split_indices":[3964,1264,0,6977,0,9054,0,0,0],"split_type":[0,0,0,0,0,0,0,0,0],"sum_hessian":[6.695312E3,6.668837E3,2.6474903E1,6.642472E3,2.6364952E1,6.6160903E3,2.6381954E1,6.588785E3,2.7304985E1],"tree_param":{"num_deleted":"0","num_feature":"9998","num_nodes":"9","size_leaf_vector":"0"}},{"base_weights":[5.725593E-1,5.9994066E-1,-3.7398454E-2,6.134505E-1,-1.4135847E0,-5.199767E-1,1.0288006E0,6.3124937E-1,-6.4549166E-1,-1.1972681E0,8.7582874E-1,1.8099741E0,-1.3499229E0,6.413615E-1,-1.4728328E0,-1.4418619E0,1.6756544E0,-1.4802222E0,2.2927427E0,-1.3795393E0,1.6691251E0,2.3095477E0,3.8011047E-1],"categories":[],"categories_nodes":[],"categories_segments":[],"categories_sizes":[],"default_left":[1,1,1,1,0,1,1,1,1,1,1,1,0,0,0,0,0,0,0,0,0,0,0],"id":24,"left_children":[1,3,5,7,-1,9,11,13,15,17,19,21,-1,-1,-1,-1,-1,-1,-1,-1,-1,-1,-1],"loss_changes":[1.1261304E2,1.7637134E2,1.5003683E2,1.4402954E2,0E0,1.9077612E2,1.7130005E2,1.3542627E2,1.6849944E2,1.3724847E2,1.2064692E2,4.829161E1,0E0,0E0,0E0,0E0,0E0,0E0,0E0,0E0,0E0,0E0,0E0],"parents":[2147483647,0,0,1,1,2,2,3,3,5,5,6,6,7,7,8,8,9,9,10,10,11,11],"right_children":[2,4,6,8,-1,10,12,14,16,18,20,22,-1,-1,-1,-1,-1,-1,-1,-1,-1,-1,-1],"split_conditions":[-9.536743E-7,-9.536743E-7,-9.536743E-7,-9.536743E-7,-7.067924E-2,-9.536743E-7,-9.536743E-7,-9.536743E-7,-9.536743E-7,-9.536743E-7,-9.536743E-7,-9.536743E-7,-6.749614E-2,3.2068074E-2,-7.364164E-2,-7.209309E-2,8.3782725E-2,-7.401111E-2,1.1463714E-1,-6.897696E-2,8.3456255E-2,1.1547738E-1,1.9005524E-2],"split_indices":[9708,550,729,8080,0,1585,1610,1922,567,6408,6157,4797,0,0,0,0,0,0,0,0,0,0,0],"split_type":[0,0,0,0,0,0,0,0,0,0,0,0,0,0,0,0,0,0,0,0,0,0,0],"sum_hessian":[6.740347E3,6.450784E3,2.8956323E2,6.4084814E3,4.2302696E1,1.9969188E2,8.987133E1,6.3196333E3,8.884805E1,1.3454729E2,6.514461E1,6.783379E1,2.2037537E1,6.2900986E3,2.9534597E1,6.6433846E1,2.2414207E1,1.2498957E2,9.5577135E0,1.6759054E1,4.8385548E1,4.9814213E1,1.8019583E1],"tree_param":{"num_deleted":"0","num_feature":"9998","num_nodes":"23","size_leaf_vector":"0"}},{"base_weights":[5.40857E-1,5.2107364E-1,1.3847835E0,5.4981405E-1,-2.0446034E-1,1.4757473E0,-1.1707991E0,5.6328994E-1,-1.3166499E0,-7.3901695E-1,1.2133356E0,1.5536921E0,-1.0958573E0,5.8302754E-1,-6.906524E-1,-1.0947746E0,1.5260557E0,1.6488044E0,-1.2127157E0,1.6269605E0,-1.051473E0],"categories":[],"categories_nodes":[],"categories_segments":[],"categories_sizes":[],"default_left":[1,1,1,1,1,1,0,1,0,1,1,1,0,0,0,0,0,0,0,0,0],"id":25,"left_children":[1,3,5,7,9,11,-1,13,-1,15,17,19,-1,-1,-1,-1,-1,-1,-1,-1,-1],"loss_changes":[1.1243616E2,1.3823694E2,3.7676178E1,1.6100952E2,1.9273868E2,3.1722351E1,0E0,1.5699219E2,0E0,1.5029642E2,7.561928E1,2.9535645E1,0E0,0E0,0E0,0E0,0E0,0E0,0E0,0E0,0E0],"parents":[2147483647,0,0,1,1,2,2,3,3,4,4,5,5,7,7,9,9,10,10,11,11],"right_children":[2,4,6,8,10,12,-1,14,-1,16,18,20,-1,-1,-1,-1,-1,-1,-1,-1,-1],"split_conditions":[-9.536743E-7,-9.536743E-7,-9.536743E-7,-9.536743E-7,-9.536743E-7,-9.536743E-7,-5.8539957E-2,-9.536743E-7,-6.5832496E-2,-9.536743E-7,-9.536743E-7,-9.536743E-7,-5.4792862E-2,2.9151378E-2,-3.4532618E-2,-5.473873E-2,7.630279E-2,8.244022E-2,-6.0635787E-2,8.1348024E-2,-5.257365E-2],"split_indices":[6492,6401,857,3336,7266,2377,0,281,0,8395,1368,6954,0,0,0,0,0,0,0,0,0],"split_type":[0,0,0,0,0,0,0,0,0,0,0,0,0,0,0,0,0,0,0,0,0],"sum_hessian":[6.776651E3,6.6230117E3,1.5363957E2,6.3708857E3,2.5212572E2,1.4876689E2,4.872693E0,6.3259106E3,4.4975048E1,1.8344104E2,6.868467E1,1.4477463E2,3.9922578E0,6.228408E3,9.750272E1,1.5898686E2,2.4454182E1,5.8503796E1,1.0180878E1,1.4117953E2,3.59509E0],"tree_param":{"num_deleted":"0","num_feature":"9998","num_nodes":"21","size_leaf_vector":"0"}},{"base_weights":[5.115034E-1,5.297728E-1,-3.5902557E-1,5.1541734E-1,1.6476806E0,-7.434029E-1,1.5559206E0,5.466315E-1,-1.3812017E-1,1.8225272E0,-1.2259669E0,-1.2884932E0,1.4669288E0,1.8391488E0,-1.0194794E0,5.577106E-1,-1.4967049E0,-3.9501023E-1,2.014405E0,1.9672894E0,-1.1434478E0,-1.1599753E0,1.8716456E0],"categories":[],"categories_nodes":[],"categories_segments":[],"categories_sizes":[],"default_left":[1,1,1,1,1,1,1,1,1,1,0,0,1,0,0,0,0,0,0,0,0,0,0],"id":26,"left_children":[1,3,5,7,9,11,13,15,17,19,-1,-1,21,-1,-1,-1,-1,-1,-1,-1,-1,-1,-1],"loss_changes":[1.0844177E2,1.06144165E2,1.045776E2,1.3438599E2,4.4476776E1,1.4369156E2,1.9243782E1,1.4309473E2,1.6719652E2,3.6449615E1,0E0,0E0,2.742136E1,0E0,0E0,0E0,0E0,0E0,0E0,0E0,0E0,0E0,0E0],"parents":[2147483647,0,0,1,1,2,2,3,3,4,4,5,5,6,6,7,7,8,8,9,9,12,12],"right_children":[2,4,6,8,10,12,14,16,18,20,-1,-1,22,-1,-1,-1,-1,-1,-1,-1,-1,-1,-1],"split_conditions":[-9.536743E-7,-9.536743E-7,-9.536743E-7,-9.536743E-7,-9.536743E-7,-9.536743E-7,-9.536743E-7,-9.536743E-7,-9.536743E-7,-9.536743E-7,-6.1298348E-2,-6.442466E-2,-9.536743E-7,9.195744E-2,-5.097397E-2,2.788553E-2,-7.483525E-2,-1.9750511E-2,1.0072025E-1,9.836447E-2,-5.7172388E-2,-5.7998765E-2,9.358228E-2],"split_indices":[4559,2877,1279,3120,1161,257,2580,7587,882,1753,0,0,2533,0,0,0,0,0,0,0,0,0,0],"split_type":[0,0,0,0,0,0,0,0,0,0,0,0,0,0,0,0,0,0,0,0,0,0,0],"sum_hessian":[6.8055444E3,6.6660386E3,1.3950574E2,6.5829653E3,8.307333E1,1.1669411E2,2.2811623E1,6.2830396E3,2.9992612E2,7.865346E1,4.4198756E0,9.39437E1,2.275041E1,2.080904E1,2.002584E0,6.2498794E3,3.3160152E1,2.6867767E2,3.1248465E1,7.531426E1,3.3391988E0,2.7880182E0,1.996239E1],"tree_param":{"num_deleted":"0","num_feature":"9998","num_nodes":"23","size_leaf_vector":"0"}},{"base_weights":[4.8389742E-1,4.9580574E-1,-8.0985E-1,5.038441E-1,-1.4393516E0,-1.371263E0,1.9727461E0,5.1779765E-1,-6.203164E-1,5.2871966E-1,-1.4870219E0,-1.5202824E0,2.0876827E0],"categories":[],"categories_nodes":[],"categories_segments":[],"categories_sizes":[],"default_left":[1,1,1,1,0,0,0,1,1,0,0,0,0],"id":27,"left_children":[1,3,5,7,-1,-1,-1,9,11,-1,-1,-1,-1],"loss_changes":[1.0568494E2,1.0606787E2,1.0066589E2,1.0612012E2,0E0,0E0,0E0,1.4667566E2,2.0581361E2,0E0,0E0,0E0,0E0],"parents":[2147483647,0,0,1,1,2,2,3,3,7,7,8,8],"right_children":[2,4,6,8,-1,-1,-1,10,12,-1,-1,-1,-1],"split_conditions":[-9.536743E-7,-9.536743E-7,-9.536743E-7,-9.536743E-7,-7.196758E-2,-6.8563156E-2,9.8637305E-2,-9.536743E-7,-9.536743E-7,2.6435984E-2,-7.4351095E-2,-7.6014124E-2,1.0438414E-1],"split_indices":[6482,336,2304,3915,0,0,0,333,6061,0,0,0,0],"split_type":[0,0,0,0,0,0,0,0,0,0,0,0,0],"sum_hessian":[6.832758E3,6.7710503E3,6.1707493E1,6.7437773E3,2.7273024E1,5.1769707E1,9.937789E0,6.66163E3,8.2147644E1,6.626267E3,3.5362835E1,6.1986042E1,2.0161606E1],"tree_param":{"num_deleted":"0","num_feature":"9998","num_nodes":"13","size_leaf_vector":"0"}},{"base_weights":[4.57871E-1,4.7500986E-1,-4.2707315E-1,4.8629943E-1,-1.4433627E0,-8.891691E-1,1.9117285E0,4.9676755E-1,-1.3005577E0,-1.506904E0,1.3630093E0,-6.985851E-1,2.0702066E0,5.0455236E-1,-1.5121266E0,1.6955796E0,-1.0162925E0],"categories":[],"categories_nodes":[],"categories_segments":[],"categories_sizes":[],"default_left":[1,1,1,1,0,1,1,1,0,0,1,0,0,0,0,0,0],"id":28,"left_children":[1,3,5,7,-1,9,11,13,-1,-1,15,-1,-1,-1,-1,-1,-1],"loss_changes":[1.0424292E2,1.4645312E2,1.4312111E2,1.2580493E2,0E0,1.5501987E2,1.0508255E1,1.0480713E2,0E0,0E0,2.086517E1,0E0,0E0,0E0,0E0,0E0,0E0],"parents":[2147483647,0,0,1,1,2,2,3,3,5,5,6,6,7,7,10,10],"right_children":[2,4,6,8,-1,10,12,14,-1,-1,16,-1,-1,-1,-1,-1,-1],"split_conditions":[-9.536743E-7,-9.536743E-7,-9.536743E-7,-9.536743E-7,-7.2168134E-2,-9.536743E-7,-9.536743E-7,-9.536743E-7,-6.5027885E-2,-7.53452E-2,-9.536743E-7,-3.4929257E-2,1.03510335E-1,2.522762E-2,-7.560633E-2,8.477899E-2,-5.0814625E-2],"split_indices":[881,2083,1145,7524,0,4261,3830,4618,0,0,1610,0,0,0,0,0,0],"split_type":[0,0,0,0,0,0,0,0,0,0,0,0,0,0,0,0,0],"sum_hessian":[6.858656E3,6.7288013E3,1.2985466E2,6.6901763E3,3.862496E1,1.08948616E2,2.0906038E1,6.6519287E3,3.824769E1,8.575764E1,2.3190977E1,1.001535E0,1.9904503E1,6.6269966E3,2.4931913E1,2.0599073E1,2.591903E0],"tree_param":{"num_deleted":"0","num_feature":"9998","num_nodes":"17","size_leaf_vector":"0"}},{"base_weights":[4.3349102E-1,4.1486824E-1,1.2475637E0,4.2549655E-1,-1.3212634E0,1.3372248E0,-1.1521168E0,4.35198E-1,-1.4045616E0,1.4144769E0,-1.1241531E0,4.4556862E-1,-1.2210006E0,1.4869008E0,-1.2241998E0],"categories":[],"categories_nodes":[],"categories_segments":[],"categories_sizes":[],"default_left":[1,1,1,1,0,1,0,1,0,1,0,0,0,0,0],"id":29,"left_children":[1,3,5,7,-1,9,-1,11,-1,13,-1,-1,-1,-1,-1],"loss_changes":[1.03809204E2,1.2472998E2,3.454686E1,1.1936865E2,0E0,2.9796783E1,0E0,1.1483984E2,0E0,2.9390839E1,0E0,0E0,0E0,0E0,0E0],"parents":[2147483647,0,0,1,1,2,2,3,3,5,5,7,7,9,9],"right_children":[2,4,6,8,-1,10,-1,12,-1,14,-1,-1,-1,-1,-1],"split_conditions":[-9.536743E-7,-9.536743E-7,-9.536743E-7,-9.536743E-7,-6.606317E-2,-9.536743E-7,-5.760584E-2,-9.536743E-7,-7.0228085E-2,-9.536743E-7,-5.6207657E-2,2.2278432E-2,-6.1050028E-2,7.4345045E-2,-6.1209988E-2],"split_indices":[6492,5134,4210,7137,0,2377,0,2674,0,5728,0,0,0,0,0],"split_type":[0,0,0,0,0,0,0,0,0,0,0,0,0,0,0],"sum_hessian":[6.880564E3,6.728159E3,1.5240442E2,6.6879717E3,4.0187847E1,1.473419E2,5.062504E0,6.6534624E3,3.4508915E1,1.432706E2,4.071314E0,6.612786E3,4.067634E1,1.3986812E2,3.402472E0],"tree_param":{"num_deleted":"0","num_feature":"9998","num_nodes":"15","size_leaf_vector":"0"}},{"base_weights":[4.1066045E-1,3.877322E-1,1.0555465E0,4.0217423E-1,-1.0242554E0,1.2729542E0,-1.3946338E0,4.2126706E-1,-7.9319733E-1,-1.4327828E0,1.4127147E0,1.4328449E0,-1.3636185E0,4.3609485E-1,-9.4321847E-1,-1.1029524E0,1.9385058E0,1.5386622E0,-1.2970145E0],"categories":[],"categories_nodes":[],"categories_segments":[],"categories_sizes":[],"default_left":[1,1,1,1,1,1,0,1,1,0,0,1,0,0,0,0,0,0,0],"id":30,"left_children":[1,3,5,7,9,11,-1,13,15,-1,-1,17,-1,-1,-1,-1,-1,-1,-1],"loss_changes":[1.0160596E2,1.3630585E2,1.2764841E2,1.5090552E2,6.9477135E1,9.3670166E1,0E0,1.3180542E2,9.0193565E1,0E0,0E0,6.138977E1,0E0,0E0,0E0,0E0,0E0,0E0,0E0],"parents":[2147483647,0,0,1,1,2,2,3,3,4,4,5,5,7,7,8,8,11,11],"right_children":[2,4,6,8,10,12,-1,14,16,-1,-1,18,-1,-1,-1,-1,-1,-1,-1],"split_conditions":[-9.536743E-7,-9.536743E-7,-9.536743E-7,-9.536743E-7,-9.536743E-7,-9.536743E-7,-6.973169E-2,-9.536743E-7,-9.536743E-7,-7.163914E-2,7.0635736E-2,-9.536743E-7,-6.8180926E-2,2.1804743E-2,-4.7160923E-2,-5.5147618E-2,9.692529E-2,7.693311E-2,-6.4850725E-2],"split_indices":[3309,6345,829,881,1021,5509,0,6792,344,0,0,181,0,0,0,0,0,0,0],"split_type":[0,0,0,0,0,0,0,0,0,0,0,0,0,0,0,0,0,0,0],"sum_hessian":[6.8983916E3,6.6630938E3,2.3529793E2,6.5963403E3,6.6753235E1,2.1656252E2,1.873541E1,6.4932754E3,1.0306497E2,5.7522392E1,9.230842E0,2.046108E2,1.1951729E1,6.424145E3,6.913039E1,9.310392E1,9.961058E0,1.9739551E2,7.2152753E0],"tree_param":{"num_deleted":"0","num_feature":"9998","num_nodes":"19","size_leaf_vector":"0"}},{"base_weights":[3.8920906E-1,4.0073308E-1,-8.6294836E-1,4.087999E-1,-1.3861907E0,-1.4293195E0,1.9860147E0,4.166362E-1,-1.4156346E0,4.2503774E-1,-1.2748338E0],"categories":[],"categories_nodes":[],"categories_segments":[],"categories_sizes":[],"default_left":[1,1,1,1,0,0,0,1,0,0,0],"id":31,"left_children":[1,3,5,7,-1,-1,-1,9,-1,-1,-1],"loss_changes":[1.001189E2,9.933606E1,1.05093445E2,9.8121704E1,0E0,0E0,0E0,9.708435E1,0E0,0E0,0E0],"parents":[2147483647,0,0,1,1,2,2,3,3,7,7],"right_children":[2,4,6,8,-1,-1,-1,10,-1,-1,-1],"split_conditions":[-9.536743E-7,-9.536743E-7,-9.536743E-7,-9.536743E-7,-6.930953E-2,-7.146598E-2,9.9300735E-2,-9.536743E-7,-7.078173E-2,2.1251887E-2,-6.374169E-2],"split_indices":[1738,8523,7448,7089,0,0,0,1860,0,0,0],"split_type":[0,0,0,0,0,0,0,0,0,0,0],"sum_hessian":[6.913324E3,6.8509526E3,6.2371758E1,6.8209316E3,3.002088E1,5.2444202E1,9.927555E0,6.7925283E3,2.840357E1,6.759701E3,3.2826782E1],"tree_param":{"num_deleted":"0","num_feature":"9998","num_nodes":"11","size_leaf_vector":"0"}},{"base_weights":[3.6889753E-1,3.5485938E-1,1.3995426E0,3.65642E-1,-1.5064424E0,1.5150495E0,-1.2196246E0,3.7646362E-1,-1.459913E0,1.6138197E0,-1.15702E0,3.8576847E-1,-1.5367742E0,-1.0958159E0,1.6873043E0],"categories":[],"categories_nodes":[],"categories_segments":[],"categories_sizes":[],"default_left":[1,1,1,1,0,1,0,1,0,1,0,0,0,0,0],"id":32,"left_children":[1,3,5,7,-1,9,-1,11,-1,13,-1,-1,-1,-1,-1],"loss_changes":[9.9753174E1,1.3777026E2,2.991333E1,1.3485803E2,0E0,2.5434479E1,0E0,1.2092438E2,0E0,1.9078705E1,0E0,0E0,0E0,0E0,0E0],"parents":[2147483647,0,0,1,1,2,2,3,3,5,5,7,7,9,9],"right_children":[2,4,6,8,-1,10,-1,12,-1,14,-1,-1,-1,-1,-1],"split_conditions":[-9.536743E-7,-9.536743E-7,-9.536743E-7,-9.536743E-7,-7.532212E-2,-9.536743E-7,-6.0981233E-2,-9.536743E-7,-7.2995655E-2,-9.536743E-7,-5.7850998E-2,1.9288424E-2,-7.683871E-2,-5.4790795E-2,8.436521E-2],"split_indices":[4326,3041,5728,4193,0,2186,0,562,0,2256,0,0,0,0,0],"split_type":[0,0,0,0,0,0,0,0,0,0,0,0,0,0,0],"sum_hessian":[6.927898E3,6.836129E3,9.1768936E1,6.7975537E3,3.8575108E1,8.829656E1,3.4723766E0,6.7582856E3,3.92683E1,8.553104E1,2.7655272E0,6.7263706E3,3.191473E1,1.8909985E0,8.364004E1],"tree_param":{"num_deleted":"0","num_feature":"9998","num_nodes":"15","size_leaf_vector":"0"}},{"base_weights":[3.4971073E-1,3.5788438E-1,-1.3676677E0,3.6516657E-1,-1.5532386E0,3.7251475E-1,-1.5322928E0,3.8035917E-1,-1.4006002E0],"categories":[],"categories_nodes":[],"categories_segments":[],"categories_sizes":[],"default_left":[1,1,0,1,0,1,0,0,0],"id":33,"left_children":[1,3,-1,5,-1,7,-1,-1,-1],"loss_changes":[9.793671E1,9.673401E1,0E0,9.65611E1,0E0,9.593176E1,0E0,0E0,0E0],"parents":[2147483647,0,0,1,1,3,3,5,5],"right_children":[2,4,-1,6,-1,8,-1,-1,-1],"split_conditions":[-9.536743E-7,-9.536743E-7,-6.838339E-2,-9.536743E-7,-7.766193E-2,-9.536743E-7,-7.661464E-2,1.9017959E-2,-7.003001E-2],"split_indices":[1159,5692,0,722,0,1560,0,0,0],"split_type":[0,0,0,0,0,0,0,0,0],"sum_hessian":[6.941036E3,6.9089453E3,3.2090714E1,6.883525E3,2.5420208E1,6.857771E3,2.575408E1,6.828347E3,2.9423733E1],"tree_param":{"num_deleted":"0","num_feature":"9998","num_nodes":"9","size_leaf_vector":"0"}},{"base_weights":[3.315725E-1,3.3920726E-1,-1.4778059E0,3.525586E-1,-7.165498E-1,3.3031875E-1,9.827215E-1,-1.5766002E0,9.682485E-1,3.4461275E-1,-9.722625E-1,1.1783421E0,-1.388335E0,1.6855947E0,-1.247265E0],"categories":[],"categories_nodes":[],"categories_segments":[],"categories_sizes":[],"default_left":[1,1,0,1,1,1,1,0,1,0,0,0,0,0,0],"id":34,"left_children":[1,3,-1,5,7,9,11,-1,13,-1,-1,-1,-1,-1,-1],"loss_changes":[9.6566956E1,9.787579E1,0E0,9.553461E1,1.2732973E2,1.2337433E2,1.09549866E2,0E0,4.9719093E1,0E0,0E0,0E0,0E0,0E0,0E0],"parents":[2147483647,0,0,1,1,3,3,4,4,5,5,6,6,8,8],"right_children":[2,4,-1,6,8,10,12,-1,14,-1,-1,-1,-1,-1,-1],"split_conditions":[-9.536743E-7,-9.536743E-7,-7.389029E-2,-9.536743E-7,-9.536743E-7,-9.536743E-7,-9.536743E-7,-7.883001E-2,-9.536743E-7,1.7230637E-2,-4.8613127E-2,5.8917105E-2,-6.9416754E-2,8.427974E-2,-6.236325E-2],"split_indices":[6647,3525,0,3309,8543,2321,829,0,2580,0,0,0,0,0,0],"split_type":[0,0,0,0,0,0,0,0,0,0,0,0,0,0,0],"sum_hessian":[6.953119E3,6.9247124E3,2.8406723E1,6.838892E3,8.582002E1,6.6072324E3,2.3165965E2,5.685903E1,2.8960993E1,6.5362417E3,7.099062E1,2.1446828E2,1.7191364E1,2.2058126E1,6.9028664E0],"tree_param":{"num_deleted":"0","num_feature":"9998","num_nodes":"15","size_leaf_vector":"0"}},{"base_weights":[3.1453747E-1,2.9705054E-1,1.1065443E0,3.2255527E-1,-3.449744E-1,1.1939923E0,-1.2071501E0,3.3468977E-1,-1.3504266E0,-8.2080555E-1,9.3910706E-1,1.2678018E0,-1.1053346E0,3.5225973E-1,-7.838567E-1,-1.1413997E0,1.2291145E0,1.3224211E0,-1.235299E0,1.3379441E0,-1.0943565E0],"categories":[],"categories_nodes":[],"categories_segments":[],"categories_sizes":[],"default_left":[1,1,1,1,1,1,0,1,0,1,1,1,0,0,0,0,0,0,0,0,0],"id":35,"left_children":[1,3,5,7,9,11,-1,13,-1,15,17,19,-1,-1,-1,-1,-1,-1,-1,-1,-1],"loss_changes":[9.610553E1,1.11685425E2,3.1800049E1,1.3350342E2,1.601355E2,2.6024063E1,0E0,1.2816913E2,0E0,1.2682001E2,6.079881E1,2.4832504E1,0E0,0E0,0E0,0E0,0E0,0E0,0E0,0E0,0E0],"parents":[2147483647,0,0,1,1,2,2,3,3,4,4,5,5,7,7,9,9,10,10,11,11],"right_children":[2,4,6,8,10,12,-1,14,-1,16,18,20,-1,-1,-1,-1,-1,-1,-1,-1,-1],"split_conditions":[-9.536743E-7,-9.536743E-7,-9.536743E-7,-9.536743E-7,-9.536743E-7,-9.536743E-7,-6.0357507E-2,-9.536743E-7,-6.7521326E-2,-9.536743E-7,-9.536743E-7,-9.536743E-7,-5.5266734E-2,1.7612986E-2,-3.9192837E-2,-5.7069987E-2,6.1455727E-2,6.612106E-2,-6.176495E-2,6.6897206E-2,-5.4717828E-2],"split_indices":[6492,6401,857,3336,7266,6954,0,281,0,8395,1368,2377,0,0,0,0,0,0,0,0,0],"split_type":[0,0,0,0,0,0,0,0,0,0,0,0,0,0,0,0,0,0,0,0,0],"sum_hessian":[6.961875E3,6.812828E3,1.4904713E2,6.5530044E3,2.5982343E2,1.4408525E2,4.961877E0,6.506611E3,4.6393883E1,1.8983768E2,6.998575E1,1.4003857E2,4.046681E0,6.4066606E3,9.994991E1,1.6454681E2,2.5290857E1,5.9830406E1,1.0155347E1,1.3642125E2,3.617327E0],"tree_param":{"num_deleted":"0","num_feature":"9998","num_nodes":"21","size_leaf_vector":"0"}}]},"name":"gbtree"},"learner_model_param":{"base_score":"2.4656547E-2","num_class":"0","num_feature":"9998","num_target":"1"},"objective":{"name":"binary:logistic","reg_loss_param":{"scale_pos_weight":"40"}}},"version":[1,6,0]}