{"learner":{"attributes":{"best_iteration":"1","best_msg":"[2]\ttrain-auc:0.674521\ttest-auc:0.541433","best_ntreelimit":"2","best_score":"0.54143273708491102","niter":"26"},"feature_names":[],"feature_types":[],"gradient_booster":{"model":{"gbtree_model_param":{"num_parallel_tree":"1","num_trees":"27","size_leaf_vector":"0"},"tree_info":[0,0,0,0,0,0,0,0,0,0,0,0,0,0,0,0,0,0,0,0,0,0,0,0,0,0,0],"trees":[{"base_weights":[1.1861703E-2,1.3302507E-1,-3.183847E-1,2.8544465E-1,-1.906842E-1,-3.7291145E-1,2.0204778E0,3.5386E-1,-5.0259495E-1,-2.9126713E-1,9.162996E-1,-4.0871164E-1,1.3992395E0,3.154574E-1,2.2330346E0,-6.772741E-1,7.0989764E-1,-1.2626332E-1,-7.260403E-1,2.690815E-1,2.3726237E0,-4.6251002E-1,7.432077E-1],"categories":[],"categories_nodes":[],"categories_segments":[],"categories_sizes":[],"default_left":[1,1,1,1,1,1,0,1,1,1,1,1,0,0,0,0,0,0,0,0,0,0,0],"id":0,"left_children":[1,3,5,7,9,11,-1,13,15,17,19,21,-1,-1,-1,-1,-1,-1,-1,-1,-1,-1,-1],"loss_changes":[1.3957453E1,1.2642012E1,1.26950035E1,9.55088E0,9.427077E0,6.430729E0,0E0,1.0881748E1,3.5096602E0,5.3731184E0,6.0478506E0,6.0012913E0,0E0,0E0,0E0,0E0,0E0,0E0,0E0,0E0,0E0,0E0,0E0],"parents":[2147483647,0,0,1,1,2,2,3,3,4,4,5,5,7,7,8,8,9,9,10,10,11,11],"right_children":[2,4,6,8,10,12,-1,14,16,18,20,22,-1,-1,-1,-1,-1,-1,-1,-1,-1,-1,-1],"split_conditions":[-9.536743E-7,-9.536743E-7,-9.536743E-7,-9.536743E-7,-9.536743E-7,-9.536743E-7,6.0614336E-1,-9.536743E-7,-9.536743E-7,-9.536743E-7,-9.536743E-7,-9.536743E-7,4.1977188E-1,9.463722E-2,6.6991043E-1,-2.0318224E-1,2.129693E-1,-3.7878998E-2,-2.178121E-1,8.0724455E-2,7.117871E-1,-1.3875301E-1,2.2296232E-1],"split_indices":[339,125,1132,1204,427,963,0,1223,626,285,1307,467,0,0,0,0,0,0,0,0,0,0,0],"split_type":[0,0,0,0,0,0,0,0,0,0,0,0,0,0,0,0,0,0,0,0,0,0,0],"sum_hessian":[3.467578E2,2.541211E2,9.263672E1,1.7285156E2,8.126953E1,9.134766E1,1.2890625E0,1.5955078E2,1.3300781E1,7.517578E1,6.09375E0,9.029297E1,1.0546875E0,1.575E2,2.0507812E0,1.2011719E1,1.2890625E0,5.5429688E1,1.9746094E1,5.0390625E0,1.0546875E0,8.683594E1,3.4570312E0],"tree_param":{"num_deleted":"0","num_feature":"1568","num_nodes":"23","size_leaf_vector":"0"}},{"base_weights":[6.1343582E-3,8.2591124E-2,-3.917448E-1,6.2934205E-2,1.5471355E0,-4.609201E-1,1.1003146E0,1.5587729E-1,-2.802271E-1,2.18144E0,-6.4567104E-2,-5.2160704E-1,1.1796691E0,2.0711716E-1,-6.892276E-1,-3.8381746E-1,1.7289531E0,-5.8083624E-1,7.9481554E-1],"categories":[],"categories_nodes":[],"categories_segments":[],"categories_sizes":[],"default_left":[1,1,1,1,1,1,0,1,1,0,0,1,0,0,0,0,0,0,0],"id":1,"left_children":[1,3,5,7,9,11,-1,13,15,-1,-1,17,-1,-1,-1,-1,-1,-1,-1],"loss_changes":[1.0649289E1,8.354225E0,6.3314238E0,9.31637E0,4.072401E0,6.0547876E0,0E0,1.0076999E1,1.3634001E1,0E0,0E0,4.6235933E0,0E0,0E0,0E0,0E0,0E0,0E0,0E0],"parents":[2147483647,0,0,1,1,2,2,3,3,4,4,5,5,7,7,8,8,11,11],"right_children":[2,4,6,8,10,12,-1,14,16,-1,-1,18,-1,-1,-1,-1,-1,-1,-1],"split_conditions":[-9.536743E-7,-9.536743E-7,-9.536743E-7,-9.536743E-7,-9.536743E-7,-9.536743E-7,3.300944E-1,-9.536743E-7,-9.536743E-7,6.5443206E-1,-1.9370131E-2,-9.536743E-7,3.5390076E-1,6.213515E-2,-2.0676829E-1,-1.1514524E-1,5.1868594E-1,-1.7425087E-1,2.3844467E-1],"split_indices":[25,1557,282,127,1251,358,0,1272,1113,0,0,862,0,0,0,0,0,0,0],"split_type":[0,0,0,0,0,0,0,0,0,0,0,0,0,0,0,0,0,0,0],"sum_hessian":[3.4800528E2,2.9257605E2,5.5429222E1,2.8973032E2,2.84575E0,5.3633724E1,1.7954981E0,2.284121E2,6.1318222E1,1.7884024E0,1.0573475E0,5.237826E1,1.2554607E0,2.160666E2,1.2345493E1,5.9081055E1,2.237164E0,5.0657818E1,1.7204465E0],"tree_param":{"num_deleted":"0","num_feature":"1568","num_nodes":"19","size_leaf_vector":"0"}},{"base_weights":[1.9554454E-3,5.3574316E-2,-4.3855825E-1,1.9090498E-2,7.4301064E-1,-5.7065165E-1,1.066275E0,-3.986162E-3,1.0309356E0,1.6986772E-1,1.9984529E0,-6.4527595E-1,9.583063E-1,1.7601751E0,-1.0945089E-1,-2.9924633E-2,1.0441867E0,1.5522945E0,-6.059406E-1,-2.9134983E-1,1.398557E0,2.9415653E0,-5.5218637E-1,-7.225298E-1,7.7220607E-1],"categories":[],"categories_nodes":[],"categories_segments":[],"categories_sizes":[],"default_left":[1,1,1,1,1,1,1,1,1,1,1,1,0,0,0,0,0,0,0,0,0,0,0,0,0],"id":2,"left_children":[1,3,5,7,9,11,13,15,17,19,21,23,-1,-1,-1,-1,-1,-1,-1,-1,-1,-1,-1,-1,-1],"loss_changes":[7.977773E0,7.45123E0,7.9234877E0,7.01096E0,1.0404438E1,4.55264E0,2.899769E0,8.034964E0,6.6541185E0,6.8362174E0,1.26588745E1,4.223608E0,0E0,0E0,0E0,0E0,0E0,0E0,0E0,0E0,0E0,0E0,0E0,0E0,0E0],"parents":[2147483647,0,0,1,1,2,2,3,3,4,4,5,5,6,6,7,7,8,8,9,9,10,10,11,11],"right_children":[2,4,6,8,10,12,14,16,18,20,22,24,-1,-1,-1,-1,-1,-1,-1,-1,-1,-1,-1,-1,-1],"split_conditions":[-9.536743E-7,-9.536743E-7,-9.536743E-7,-9.536743E-7,-9.536743E-7,-9.536743E-7,-9.536743E-7,-9.536743E-7,-9.536743E-7,-9.536743E-7,-9.536743E-7,-9.536743E-7,2.8749192E-1,5.2805257E-1,-3.2835267E-2,-8.97739E-3,3.1325603E-1,4.6568838E-1,-1.8178219E-1,-8.740495E-2,4.195671E-1,8.824696E-1,-1.6565591E-1,-2.1675895E-1,2.3166183E-1],"split_indices":[1206,458,833,543,340,1449,1236,664,256,1285,1271,752,0,0,0,0,0,0,0,0,0,0,0,0,0],"split_type":[0,0,0,0,0,0,0,0,0,0,0,0,0,0,0,0,0,0,0,0,0,0,0,0,0],"sum_hessian":[3.488105E2,3.1301065E2,3.5799835E1,2.990792E2,1.3931476E1,3.3481625E1,2.31821E0,2.9338416E2,5.6950097E0,1.0344322E1,3.5871544E0,3.247459E1,1.0070343E0,1.1452184E0,1.1729915E0,2.8724728E2,6.136876E0,4.3584723E0,1.3365375E0,8.075768E0,2.2685533E0,2.5069356E0,1.0802187E0,3.1261108E1,1.2134815E0],"tree_param":{"num_deleted":"0","num_feature":"1568","num_nodes":"25","size_leaf_vector":"0"}},{"base_weights":[1.0878008E-4,1.5055153E-1,-1.4019582E-1,9.707116E-2,1.2471484E0,-1.8046345E-1,1.0152979E0,3.086902E-2,7.553329E-1,1.9787506E0,-1.44870775E-2,-2.2788079E-1,7.428855E-1,-1.0006935E-1,2.2095711E0,1.0582949E-3,1.7953337E0,1.040341E0,-7.1299034E-1,2.4141307E0,3.260661E-1,-6.624458E-1,7.6414394E-1,-2.554968E-1,1.018111E0,-7.656561E-1,1.4765621E0,8.236346E-1,-7.1847856E-1,4.244256E-1,2.9371524E0],"categories":[],"categories_nodes":[],"categories_segments":[],"categories_sizes":[],"default_left":[1,1,1,1,1,1,1,1,1,1,1,1,1,1,1,0,0,0,0,0,0,0,0,0,0,0,0,0,0,0,0],"id":3,"left_children":[1,3,5,7,9,11,13,15,17,19,21,23,25,27,29,-1,-1,-1,-1,-1,-1,-1,-1,-1,-1,-1,-1,-1,-1,-1,-1],"loss_changes":[7.404172E0,9.80621E0,8.628492E0,7.0575657E0,7.2162495E0,7.8856626E0,8.563991E0,7.8187037E0,6.9376326E0,2.7646236E0,2.4490697E0,6.054616E0,1.0918195E1,2.988202E0,2.7381392E0,0E0,0E0,0E0,0E0,0E0,0E0,0E0,0E0,0E0,0E0,0E0,0E0,0E0,0E0,0E0,0E0],"parents":[2147483647,0,0,1,1,2,2,3,3,4,4,5,5,6,6,7,7,8,8,9,9,10,10,11,11,12,12,13,13,14,14],"right_children":[2,4,6,8,10,12,14,16,18,20,22,24,26,28,30,-1,-1,-1,-1,-1,-1,-1,-1,-1,-1,-1,-1,-1,-1,-1,-1],"split_conditions":[-9.536743E-7,-9.536743E-7,-9.536743E-7,-9.536743E-7,-9.536743E-7,-9.536743E-7,-9.536743E-7,-9.536743E-7,-9.536743E-7,-9.536743E-7,-9.536743E-7,-9.536743E-7,-9.536743E-7,-9.536743E-7,-9.536743E-7,3.1748848E-4,5.3860015E-1,3.1210232E-1,-2.1389711E-1,7.2423923E-1,9.7819835E-2,-1.9873375E-1,2.2924319E-1,-7.664904E-2,3.054333E-1,-2.2969684E-1,4.4296867E-1,2.470904E-1,-2.1554358E-1,1.2732768E-1,8.811458E-1],"split_indices":[220,527,1500,505,276,418,6,748,128,1251,209,991,276,125,288,0,0,0,0,0,0,0,0,0,0,0,0,0,0,0,0],"split_type":[0,0,0,0,0,0,0,0,0,0,0,0,0,0,0,0,0,0,0,0,0,0,0,0,0,0,0,0,0,0,0],"sum_hessian":[3.4877887E2,1.6827336E2,1.8050551E2,1.614863E2,6.7870674E0,1.7524232E2,5.263173E0,1.4768076E2,1.3805531E1,3.9361537E0,2.850914E0,1.6739899E2,7.843347E0,3.1952467E0,2.0679266E0,1.4621112E2,1.4696448E0,1.1805505E1,2.000025E0,2.7507644E0,1.185389E0,1.6374682E0,1.2134458E0,1.6454694E2,2.852051E0,2.552161E0,5.2911863E0,1.1482584E0,2.0469882E0,1.0572544E0,1.0106721E0],"tree_param":{"num_deleted":"0","num_feature":"1568","num_nodes":"31","size_leaf_vector":"0"}},{"base_weights":[-4.3864042E-4,6.457814E-2,-2.9115722E-1,9.521732E-2,-8.504111E-1,-3.6510202E-1,1.468962E0,2.2135162E-1,-8.9022994E-2,-9.441177E-1,-3.6744464E-2,-4.3745267E-1,1.0529512E0,1.8760936E-1,1.6379652E0,-1.8229283E-1,7.5130755E-1,-4.8940226E-1,9.822294E-1,-1.6163962E-1,1.8999571E0],"categories":[],"categories_nodes":[],"categories_segments":[],"categories_sizes":[],"default_left":[1,1,1,1,1,1,0,1,1,0,0,1,1,0,0,0,0,0,0,0,0],"id":4,"left_children":[1,3,5,7,9,11,-1,13,15,-1,-1,17,19,-1,-1,-1,-1,-1,-1,-1,-1],"loss_changes":[6.6200676E0,8.105352E0,8.867577E0,6.4768357E0,6.801038E-1,6.845442E0,0E0,7.590397E0,9.043198E0,0E0,0E0,4.8997355E0,3.7169783E0,0E0,0E0,0E0,0E0,0E0,0E0,0E0,0E0],"parents":[2147483647,0,0,1,1,2,2,3,3,4,4,5,5,7,7,8,8,11,11,12,12],"right_children":[2,4,6,8,10,12,-1,14,16,-1,-1,18,20,-1,-1,-1,-1,-1,-1,-1,-1],"split_conditions":[-9.536743E-7,-9.536743E-7,-9.536743E-7,-9.536743E-7,-9.536743E-7,-9.536743E-7,4.406886E-1,-9.536743E-7,-9.536743E-7,-2.8323534E-1,-1.102334E-2,-9.536743E-7,-9.536743E-7,5.628281E-2,4.9138957E-1,-5.4687854E-2,2.2539227E-1,-1.4682068E-1,2.9466882E-1,-4.8491888E-2,5.699871E-1],"split_indices":[212,270,1098,200,1219,880,0,1390,150,0,0,693,1178,0,0,0,0,0,0,0,0],"split_type":[0,0,0,0,0,0,0,0,0,0,0,0,0,0,0,0,0,0,0,0,0],"sum_hessian":[3.48244E2,2.852321E2,6.30119E1,2.768572E2,8.374859E0,6.1232037E1,1.7798643E0,1.6422461E2,1.12632614E2,7.3661995E0,1.0086595E0,5.891751E1,2.3145258E0,1.6151004E2,2.7145658E0,1.02085075E2,1.054754E1,5.7469826E1,1.4476862E0,1.283366E0,1.0311599E0],"tree_param":{"num_deleted":"0","num_feature":"1568","num_nodes":"21","size_leaf_vector":"0"}},{"base_weights":[-1.7711163E-3,2.0373013E-2,-8.417965E-1,4.801245E-2,-6.3512605E-1,-9.3832153E-1,-3.553826E-2,6.650811E-2,-9.122828E-1,-8.2866764E-1,7.471677E-1,8.829734E-2,-7.254413E-1,-8.936131E-1,-6.624444E-2],"categories":[],"categories_nodes":[],"categories_segments":[],"categories_sizes":[],"default_left":[1,1,1,1,1,0,0,1,0,1,0,0,0,0,0],"id":5,"left_children":[1,3,5,7,9,-1,-1,11,-1,13,-1,-1,-1,-1,-1],"loss_changes":[6.513242E0,6.2127438E0,6.6653395E-1,5.8926353E0,4.331476E0,0E0,0E0,5.639106E0,0E0,5.669861E-1,0E0,0E0,0E0,0E0,0E0],"parents":[2147483647,0,0,1,1,2,2,3,3,4,4,7,7,9,9],"right_children":[2,4,6,8,10,-1,-1,12,-1,14,-1,-1,-1,-1,-1],"split_conditions":[-9.536743E-7,-9.536743E-7,-9.536743E-7,-9.536743E-7,-9.536743E-7,-2.8149647E-1,-1.0661478E-2,-9.536743E-7,-2.7368486E-1,-9.536743E-7,2.2415031E-1,2.6489202E-2,-2.176324E-1,-2.6808393E-1,-1.9873332E-2],"split_indices":[1461,515,1485,89,585,0,0,1385,0,221,0,0,0,0,0],"split_type":[0,0,0,0,0,0,0,0,0,0,0,0,0,0,0],"sum_hessian":[3.4822162E2,3.4022852E2,7.9931054E0,3.273523E2,1.2876215E1,6.992203E0,1.0009025E0,3.2207965E2,5.272637E0,1.1646101E1,1.230114E0,3.1432013E2,7.759513E0,1.057336E1,1.0727398E0],"tree_param":{"num_deleted":"0","num_feature":"1568","num_nodes":"15","size_leaf_vector":"0"}},{"base_weights":[-6.3250405E-3,1.308622E-2,-8.21112E-1,4.806685E-2,-4.6937245E-1,-9.2695314E-1,-4.1495074E-2,2.4377733E-2,9.1582537E-1,-6.0971284E-1,9.426472E-1,5.1401567E-2,-7.7117926E-1,1.4840958E0,-4.5352593E-1,-2.445878E-2,-9.237715E-1],"categories":[],"categories_nodes":[],"categories_segments":[],"categories_sizes":[],"default_left":[1,1,1,1,1,0,0,1,1,1,0,0,0,0,0,0,0],"id":6,"left_children":[1,3,5,7,9,-1,-1,11,13,15,-1,-1,-1,-1,-1,-1,-1],"loss_changes":[5.553664E0,5.8161855E0,6.3574696E-1,6.5760965E0,5.1920543E0,0E0,0E0,6.779318E0,7.2894607E0,3.9845715E0,0E0,0E0,0E0,0E0,0E0,0E0,0E0],"parents":[2147483647,0,0,1,1,2,2,3,3,4,4,7,7,8,8,9,9],"right_children":[2,4,6,8,10,-1,-1,12,14,16,-1,-1,-1,-1,-1,-1,-1],"split_conditions":[-9.536743E-7,-9.536743E-7,-9.536743E-7,-9.536743E-7,-9.536743E-7,-2.7808595E-1,-1.2448522E-2,-9.536743E-7,-9.536743E-7,-9.536743E-7,2.8279418E-1,1.542047E-2,-2.3135379E-1,4.4522876E-1,-1.3605778E-1,-7.3376345E-3,-2.7713147E-1],"split_indices":[842,189,1212,393,149,0,0,21,242,276,0,0,0,0,0,0,0],"split_type":[0,0,0,0,0,0,0,0,0,0,0,0,0,0,0,0,0],"sum_hessian":[3.4946182E2,3.4229114E2,7.170711E0,3.199906E2,2.2300524E1,6.1471815E0,1.0235296E0,3.12488E2,7.5025826E0,2.0801287E1,1.4992379E0,3.0312668E2,9.361352E0,5.2429876E0,2.259595E0,7.6406584E0,1.3160627E1],"tree_param":{"num_deleted":"0","num_feature":"1568","num_nodes":"17","size_leaf_vector":"0"}},{"base_weights":[-8.946519E-3,3.928473E-2,-3.1686854E-1,1.850476E-2,1.2882854E0,-4.5578584E-1,6.562994E-1,1.7562687E-3,1.3362914E0,1.6448958E-1,2.1202848E0,-5.701561E-1,4.7183833E-1,2.053793E0,-8.724317E-2,4.6546254E-2,-4.179025E-1,2.1675348E0,-1.5790328E-1,8.7721026E-1,-5.914457E-1,-6.3416255E-1,6.9386303E-1,1.4649068E0,-7.163198E-1,7.8903306E-1,-7.573213E-1],"categories":[],"categories_nodes":[],"categories_segments":[],"categories_sizes":[],"default_left":[1,1,1,1,1,1,1,1,1,1,0,1,1,0,1,0,0,0,0,0,0,0,0,0,0,0,0],"id":7,"left_children":[1,3,5,7,9,11,13,15,17,19,-1,21,23,-1,25,-1,-1,-1,-1,-1,-1,-1,-1,-1,-1,-1,-1],"loss_changes":[5.223877E0,7.8733163E0,6.738305E0,6.6257305E0,4.2933598E0,4.7536535E0,6.7874913E0,5.612172E0,5.0217257E0,2.240821E0,0E0,3.5212278E0,7.169449E0,0E0,3.5982008E0,0E0,0E0,0E0,0E0,0E0,0E0,0E0,0E0,0E0,0E0,0E0,0E0],"parents":[2147483647,0,0,1,1,2,2,3,3,4,4,5,5,6,6,7,7,8,8,9,9,11,11,12,12,14,14],"right_children":[2,4,6,8,10,12,14,16,18,20,-1,22,24,-1,26,-1,-1,-1,-1,-1,-1,-1,-1,-1,-1,-1,-1],"split_conditions":[-9.536743E-7,-9.536743E-7,-9.536743E-7,-9.536743E-7,-9.536743E-7,-9.536743E-7,-9.536743E-7,-9.536743E-7,-9.536743E-7,-9.536743E-7,6.3608545E-1,-9.536743E-7,-9.536743E-7,6.161379E-1,-9.536743E-7,1.3963877E-2,-1.2537076E-1,6.5026045E-1,-4.737099E-2,2.631631E-1,-1.7743371E-1,-1.9024877E-1,2.0815893E-1,4.3947205E-1,-2.1489595E-1,2.3670992E-1,-2.271964E-1],"split_indices":[1282,1557,124,1441,1242,33,160,97,12,160,0,497,1196,0,1192,0,0,0,0,0,0,0,0,0,0,0,0],"split_type":[0,0,0,0,0,0,0,0,0,0,0,0,0,0,0,0,0,0,0,0,0,0,0,0,0,0,0],"sum_hessian":[3.4990338E2,3.032728E2,4.6630596E1,2.9930792E2,3.9648528E0,4.1270924E1,5.359674E0,2.9654037E2,2.7675653E0,2.1961625E0,1.7686905E0,3.708405E1,4.186872E0,1.2493461E0,4.1103277E0,2.6874628E2,2.7794079E1,1.4887264E0,1.2788389E0,1.0478163E0,1.1483462E0,3.5771E1,1.3130496E0,2.153796E0,2.0330758E0,1.7041926E0,2.406135E0],"tree_param":{"num_deleted":"0","num_feature":"1568","num_nodes":"27","size_leaf_vector":"0"}},{"base_weights":[-5.8247712E-3,1.0492255E-2,-8.939556E-1,3.5139065E-2,-5.7117665E-1,-1.4139717E-2,3.7793356E-1,-9.689112E-1,5.6658614E-1,6.689932E-2,-3.4043962E-1,1.9820623E-1,2.1966846E0,-3.632075E-1,1.5238674E0],"categories":[],"categories_nodes":[],"categories_segments":[],"categories_sizes":[],"default_left":[1,1,0,1,1,1,1,0,1,0,0,0,0,0,0],"id":8,"left_children":[1,3,-1,5,7,9,11,-1,13,-1,-1,-1,-1,-1,-1],"loss_changes":[5.068576E0,4.948902E0,0E0,5.5928354E0,6.8995223E0,7.695436E0,1.3165881E1,0E0,4.3505898E0,0E0,0E0,0E0,0E0,0E0,0E0],"parents":[2147483647,0,0,1,1,3,3,4,4,5,5,6,6,8,8],"right_children":[2,4,-1,6,8,10,12,-1,14,-1,-1,-1,-1,-1,-1],"split_conditions":[-9.536743E-7,-9.536743E-7,-2.681867E-1,-9.536743E-7,-9.536743E-7,-9.536743E-7,-9.536743E-7,-2.9067338E-1,-9.536743E-7,2.0069797E-2,-1.0213189E-1,5.9461873E-2,6.590054E-1,-1.0896225E-1,4.5716023E-1],"split_indices":[211,1442,0,471,1362,339,1113,0,1208,0,0,0,0,0,0],"split_type":[0,0,0,0,0,0,0,0,0,0,0,0,0,0,0],"sum_hessian":[3.4811105E2,3.4280118E2,5.3098683E0,3.2976767E2,1.3033516E1,2.8915817E2,4.0609486E1,9.767455E0,3.2660604E0,2.3226772E2,5.689046E1,3.7966637E1,2.642849E0,1.9716294E0,1.2944311E0],"tree_param":{"num_deleted":"0","num_feature":"1568","num_nodes":"15","size_leaf_vector":"0"}},{"base_weights":[-7.045917E-3,1.0404116E-2,-8.132635E-1,2.933739E-2,-9.124606E-1,-9.0418917E-1,-1.1729967E-1,7.503827E-2,-2.8710568E-1,3.3391338E-2,5.9321755E-1,-3.7233758E-1,1.1318996E0],"categories":[],"categories_nodes":[],"categories_segments":[],"categories_sizes":[],"default_left":[1,1,1,1,0,0,0,1,1,0,0,0,0],"id":9,"left_children":[1,3,5,7,-1,-1,-1,9,11,-1,-1,-1,-1],"loss_changes":[4.9138637E0,6.0073705E0,3.6219788E-1,4.885999E0,0E0,0E0,0E0,6.340253E0,5.5803638E0,0E0,0E0,0E0,0E0],"parents":[2147483647,0,0,1,1,2,2,3,3,7,7,8,8],"right_children":[2,4,6,8,-1,-1,-1,10,12,-1,-1,-1,-1],"split_conditions":[-9.536743E-7,-9.536743E-7,-9.536743E-7,-9.536743E-7,-2.737382E-1,-2.7125677E-1,-3.51899E-2,-9.536743E-7,-9.536743E-7,1.0017402E-2,1.7796527E-1,-1.1170128E-1,3.395699E-1],"split_indices":[700,341,431,1336,0,0,0,1235,1482,0,0,0,0],"split_type":[0,0,0,0,0,0,0,0,0,0,0,0,0],"sum_hessian":[3.476793E2,3.4127963E2,6.399671E0,3.3536752E2,5.91211E0,5.3955655E0,1.0041057E0,2.937123E2,4.165522E1,2.7284753E2,2.086477E1,3.9990795E1,1.6644223E0],"tree_param":{"num_deleted":"0","num_feature":"1568","num_nodes":"13","size_leaf_vector":"0"}},{"base_weights":[-8.045447E-3,8.274666E-3,-7.9223824E-1,2.4523597E-2,-7.810349E-1,-8.967457E-1,-8.453191E-2,-3.5442635E-3,5.079971E-1,-8.9306533E-1,-5.819786E-2,2.219448E-2,-6.0781324E-1,2.7022943E-1,2.218987E0],"categories":[],"categories_nodes":[],"categories_segments":[],"categories_sizes":[],"default_left":[1,1,1,1,1,0,0,1,1,0,0,0,0,0,0],"id":10,"left_children":[1,3,5,7,9,-1,-1,11,13,-1,-1,-1,-1,-1,-1],"loss_changes":[4.468088E0,4.4117527E0,4.5060682E-1,4.5688376E0,5.099306E-1,0E0,0E0,4.9761653E0,6.915629E0,0E0,0E0,0E0,0E0,0E0,0E0],"parents":[2147483647,0,0,1,1,2,2,3,3,4,4,7,7,8,8],"right_children":[2,4,6,8,10,-1,-1,12,14,-1,-1,-1,-1,-1,-1],"split_conditions":[-9.536743E-7,-9.536743E-7,-9.536743E-7,-9.536743E-7,-9.536743E-7,-2.6902372E-1,-2.5359575E-2,-9.536743E-7,-9.536743E-7,-2.679196E-1,-1.7459359E-2,6.6583445E-3,-1.8234397E-1,8.106883E-2,6.6569614E-1],"split_indices":[347,727,252,458,1369,0,0,20,694,0,0,0,0,0,0],"split_type":[0,0,0,0,0,0,0,0,0,0,0,0,0,0,0],"sum_hessian":[3.4760858E2,3.4149112E2,6.1174445E0,3.355523E2,5.938836E0,5.0975676E0,1.0198767E0,3.18079E2,1.7473282E1,4.9380083E0,1.0008278E0,3.0600793E2,1.207109E1,1.6358027E1,1.1152551E0],"tree_param":{"num_deleted":"0","num_feature":"1568","num_nodes":"15","size_leaf_vector":"0"}},{"base_weights":[-7.6776976E-3,3.765476E-2,-2.6976094E-1,2.273917E-2,1.3783076E0,-4.0033075E-1,4.1669264E-1,4.9865797E-2,-6.415894E-1,2.1965964E0,-1.3010438E-1,-4.695547E-1,1.0133765E0,-2.0698884E-1,1.2606084E0,2.9665472E-2,9.094444E-1,-9.629974E-1,7.835231E-1,-5.8043796E-1,3.9610538E-1,-8.307893E-1,1.0648556E0,2.317288E0,-5.7624763E-1],"categories":[],"categories_nodes":[],"categories_segments":[],"categories_sizes":[],"default_left":[1,1,1,1,1,1,1,1,1,0,0,1,0,1,1,0,0,0,0,0,0,0,0,0,0],"id":11,"left_children":[1,3,5,7,9,11,13,15,17,-1,-1,19,-1,21,23,-1,-1,-1,-1,-1,-1,-1,-1,-1,-1],"loss_changes":[4.1458635E0,5.920528E0,4.778647E0,5.355131E0,4.3075085E0,4.7564435E0,4.846854E0,4.916918E0,6.0955095E0,0E0,0E0,4.2981014E0,0E0,5.541146E0,8.795942E0,0E0,0E0,0E0,0E0,0E0,0E0,0E0,0E0,0E0,0E0],"parents":[2147483647,0,0,1,1,2,2,3,3,4,4,5,5,6,6,7,7,8,8,11,11,13,13,14,14],"right_children":[2,4,6,8,10,12,14,16,18,-1,-1,20,-1,22,24,-1,-1,-1,-1,-1,-1,-1,-1,-1,-1],"split_conditions":[-9.536743E-7,-9.536743E-7,-9.536743E-7,-9.536743E-7,-9.536743E-7,-9.536743E-7,-9.536743E-7,-9.536743E-7,-9.536743E-7,6.5897894E-1,-3.9031316E-2,-9.536743E-7,3.0401295E-1,-9.536743E-7,-9.536743E-7,8.899642E-3,2.7283332E-1,-2.888992E-1,2.3505694E-1,-1.741314E-1,1.1883162E-1,-2.492368E-1,3.194567E-1,6.951864E-1,-1.728743E-1],"split_indices":[8,828,336,853,18,590,209,656,510,0,0,584,0,354,1288,0,0,0,0,0,0,0,0,0,0],"split_type":[0,0,0,0,0,0,0,0,0,0,0,0,0,0,0,0,0,0,0,0,0,0,0,0,0],"sum_hessian":[3.4709766E2,2.9664362E2,5.0454037E1,2.9438535E2,2.2582579E0,4.2741096E1,7.7129397E0,2.837249E2,1.0660443E1,1.1682631E0,1.0899948E0,4.1382603E1,1.3584951E0,4.869182E0,2.8437576E0,2.7822116E2,5.5037594E0,8.963219E0,1.6972238E0,3.697582E1,4.406783E0,3.4995465E0,1.3696359E0,1.6392201E0,1.2045374E0],"tree_param":{"num_deleted":"0","num_feature":"1568","num_nodes":"25","size_leaf_vector":"0"}},{"base_weights":[-5.8235745E-3,2.1894045E-2,-4.241435E-1,1.5221441E-3,9.442767E-1,-6.532135E-1,3.3120754E-1,3.4458015E-2,-4.6557802E-1,2.520047E-1,1.8826615E0,-7.9859614E-1,3.0125913E-1,1.03927E0,-7.069379E-1,1.6520308E-2,8.9687157E-1,-5.998499E-1,4.6734923E-1,-2.8629357E-1,1.0653166E0,-9.207043E-1,4.1537714E-1,5.7572033E-2,1.8334004E0],"categories":[],"categories_nodes":[],"categories_segments":[],"categories_sizes":[],"default_left":[1,1,1,1,1,1,1,1,1,1,0,1,0,1,0,0,0,0,0,0,0,0,0,0,0],"id":12,"left_children":[1,3,5,7,9,11,13,15,17,19,-1,21,-1,23,-1,-1,-1,-1,-1,-1,-1,-1,-1,-1,-1],"loss_changes":[4.031626E0,6.1299906E0,3.9549031E0,4.942912E0,4.1049767E0,2.5878153E0,4.918217E0,4.627477E0,2.9313345E0,2.5864887E0,0E0,2.5990562E0,0E0,2.8478713E0,0E0,0E0,0E0,0E0,0E0,0E0,0E0,0E0,0E0,0E0,0E0],"parents":[2147483647,0,0,1,1,2,2,3,3,4,4,5,5,6,6,7,7,8,8,9,9,11,11,13,13],"right_children":[2,4,6,8,10,12,14,16,18,20,-1,22,-1,24,-1,-1,-1,-1,-1,-1,-1,-1,-1,-1,-1],"split_conditions":[-9.536743E-7,-9.536743E-7,-9.536743E-7,-9.536743E-7,-9.536743E-7,-9.536743E-7,-9.536743E-7,-9.536743E-7,-9.536743E-7,-9.536743E-7,5.647985E-1,-9.536743E-7,9.037774E-2,-9.536743E-7,-2.1208139E-1,4.9560927E-3,2.6906148E-1,-1.7995498E-1,1.4020477E-1,-8.588807E-2,3.1959498E-1,-2.762113E-1,1.2461314E-1,1.727161E-2,5.5002016E-1],"split_indices":[1270,1500,174,112,1221,786,212,714,241,374,0,1525,0,1252,0,0,0,0,0,0,0,0,0,0,0],"split_type":[0,0,0,0,0,0,0,0,0,0,0,0,0,0,0,0,0,0,0,0,0,0,0,0,0],"sum_hessian":[3.4590802E2,3.253014E2,2.0606607E1,3.19252E2,6.0494037E0,1.5915304E1,4.6913037E0,2.9908905E2,2.0162949E1,4.211222E0,1.8381816E0,1.3953289E1,1.9620152E0,2.7884026E0,1.9029012E0,2.9399332E2,5.0957365E0,1.793821E1,2.2247386E0,2.923961E0,1.2872614E0,1.2897558E1,1.0557303E0,1.7265505E0,1.0618522E0],"tree_param":{"num_deleted":"0","num_feature":"1568","num_nodes":"25","size_leaf_vector":"0"}},{"base_weights":[-3.7632508E-3,2.8236995E-2,-3.7449074E-1,5.2974075E-3,6.895627E-1,-4.8206374E-1,7.760304E-1,3.4279604E-2,-4.6651393E-1,1.4117185E0,-1.9629687E-1,-6.3949674E-1,6.093276E-1,8.841029E-3,6.46308E-1,-6.5280616E-1,1.0020683E0,1.887482E-1,2.0458152E0,-8.12607E-1,9.611469E-1,-7.758282E-1,4.1599187E-1,-1.4502793E-2,1.1335407E0],"categories":[],"categories_nodes":[],"categories_segments":[],"categories_sizes":[],"default_left":[1,1,1,1,1,1,0,1,1,1,1,1,1,0,0,0,0,0,0,0,0,0,0,0,0],"id":13,"left_children":[1,3,5,7,9,11,-1,13,15,17,19,21,23,-1,-1,-1,-1,-1,-1,-1,-1,-1,-1,-1,-1],"loss_changes":[4.1080456E0,4.83384E0,3.7793982E0,4.2439213E0,7.1109056E0,4.818948E0,0E0,4.5440474E0,5.5683446E0,4.2721653E0,4.8295007E0,3.6347456E0,1.2466373E0,0E0,0E0,0E0,0E0,0E0,0E0,0E0,0E0,0E0,0E0,0E0,0E0],"parents":[2147483647,0,0,1,1,2,2,3,3,4,4,5,5,7,7,8,8,9,9,10,10,11,11,12,12],"right_children":[2,4,6,8,10,12,-1,14,16,18,20,22,24,-1,-1,-1,-1,-1,-1,-1,-1,-1,-1,-1,-1],"split_conditions":[-9.536743E-7,-9.536743E-7,-9.536743E-7,-9.536743E-7,-9.536743E-7,-9.536743E-7,2.3280914E-1,-9.536743E-7,-9.536743E-7,-9.536743E-7,-9.536743E-7,-9.536743E-7,-9.536743E-7,2.652309E-3,1.938924E-1,-1.9584186E-1,3.006205E-1,5.662446E-2,6.137446E-1,-2.437821E-1,2.883441E-1,-2.3274846E-1,1.2479757E-1,-4.350838E-3,3.4006223E-1],"split_indices":[309,618,269,629,125,143,0,121,613,116,195,595,1242,0,0,0,0,0,0,0,0,0,0,0,0],"split_type":[0,0,0,0,0,0,0,0,0,0,0,0,0,0,0,0,0,0,0,0,0,0,0,0,0],"sum_hessian":[3.4438843E2,3.1787418E2,2.651425E1,3.0819186E2,9.682325E0,2.477848E1,1.7357687E0,2.912297E2,1.696217E1,5.006993E0,4.6753325E0,2.201664E1,2.7618423E0,2.8058194E2,1.0647764E1,1.554566E1,1.4165088E0,2.1527293E0,2.8542638E0,3.245248E0,1.4300846E0,1.9732822E1,2.283817E0,1.7050786E0,1.0567638E0],"tree_param":{"num_deleted":"0","num_feature":"1568","num_nodes":"25","size_leaf_vector":"0"}},{"base_weights":[-3.141134E-3,1.689007E-2,-5.6564873E-1,4.3305657E-3,9.438991E-1,-7.7436405E-1,5.3999215E-1,-9.552319E-3,9.085349E-1,2.1682453E0,-3.9051923E-1,-9.408045E-1,-6.7251645E-2,-2.303544E-2,1.0405436E0,1.6225799E0,-6.1189437E-1,4.4462034E-1,-5.4410326E-1],"categories":[],"categories_nodes":[],"categories_segments":[],"categories_sizes":[],"default_left":[1,1,1,1,1,1,0,1,1,0,0,0,1,0,0,0,0,0,0],"id":14,"left_children":[1,3,5,7,9,11,-1,13,15,-1,-1,-1,17,-1,-1,-1,-1,-1,-1],"loss_changes":[3.891408E0,3.8803625E0,3.1585636E0,4.153428E0,8.125618E0,1.16078E0,0E0,4.6421795E0,6.424647E0,0E0,0E0,0E0,9.884868E-1,0E0,0E0,0E0,0E0,0E0,0E0],"parents":[2147483647,0,0,1,1,2,2,3,3,4,4,5,5,7,7,8,8,12,12],"right_children":[2,4,6,8,10,12,-1,14,16,-1,-1,-1,18,-1,-1,-1,-1,-1,-1],"split_conditions":[-9.536743E-7,-9.536743E-7,-9.536743E-7,-9.536743E-7,-9.536743E-7,-9.536743E-7,1.6199765E-1,-9.536743E-7,-9.536743E-7,6.504736E-1,-1.17155775E-1,-2.8224134E-1,-9.536743E-7,-6.9106324E-3,3.1216308E-1,4.86774E-1,-1.8356831E-1,1.333861E-1,-1.6323099E-1],"split_indices":[1190,1513,243,1478,160,271,0,57,339,0,0,0,1341,0,0,0,0,0,0],"split_type":[0,0,0,0,0,0,0,0,0,0,0,0,0,0,0,0,0,0,0],"sum_hessian":[3.4351154E2,3.3263614E2,1.0875381E1,3.2918094E2,3.4552088E0,9.400453E0,1.474929E0,3.251777E2,4.003246E0,1.4760509E0,1.9791579E0,7.34184E0,2.0586126E0,3.2202103E2,3.156653E0,2.6782591E0,1.3249867E0,1.0254474E0,1.0331652E0],"tree_param":{"num_deleted":"0","num_feature":"1568","num_nodes":"19","size_leaf_vector":"0"}},{"base_weights":[-2.207925E-3,2.0671768E-2,-4.8079926E-1,4.0959533E-2,-6.586465E-1,-6.278116E-1,8.0667496E-1,6.34622E-2,-5.5398506E-1,-8.3220947E-1,3.1521764E-1,-7.7528995E-1,4.8430765E-1,4.376631E-2,7.934356E-1,-8.2423574E-1,9.100164E-2,-9.2744595E-1,-6.483883E-2,-9.064505E-1,1.2085283E-1],"categories":[],"categories_nodes":[],"categories_segments":[],"categories_sizes":[],"default_left":[1,1,1,1,1,1,0,1,1,1,0,1,0,0,0,0,0,0,0,0,0],"id":15,"left_children":[1,3,5,7,9,11,-1,13,15,17,-1,19,-1,-1,-1,-1,-1,-1,-1,-1,-1],"loss_changes":[3.7737923E0,4.5612917E0,3.4825869E0,4.3247128E0,1.8848729E0,2.7823524E0,0E0,4.4169283E0,2.1283398E0,5.553622E-1,0E0,1.6776476E0,0E0,0E0,0E0,0E0,0E0,0E0,0E0,0E0,0E0],"parents":[2147483647,0,0,1,1,2,2,3,3,4,4,5,5,7,7,8,8,9,9,11,11],"right_children":[2,4,6,8,10,12,-1,14,16,18,-1,20,-1,-1,-1,-1,-1,-1,-1,-1,-1],"split_conditions":[-9.536743E-7,-9.536743E-7,-9.536743E-7,-9.536743E-7,-9.536743E-7,-9.536743E-7,2.420025E-1,-9.536743E-7,-9.536743E-7,-9.536743E-7,9.4565295E-2,-9.536743E-7,1.452923E-1,1.3129893E-2,2.3803069E-1,-2.4727073E-1,2.7300492E-2,-2.782338E-1,-1.9451648E-2,-2.7193516E-1,3.625585E-2],"split_indices":[255,612,986,145,410,193,0,543,109,1399,0,1206,0,0,0,0,0,0,0,0,0],"split_type":[0,0,0,0,0,0,0,0,0,0,0,0,0,0,0,0,0,0,0,0,0],"sum_hessian":[3.4273016E2,3.280062E2,1.4723965E1,3.1940686E2,8.599344E0,1.36748495E1,1.0491154E0,3.0862695E2,1.0779907E1,7.4220386E0,1.1773057E0,1.2341157E1,1.3336921E0,3.0155057E2,7.076378E0,7.4009733E0,3.3789334E0,6.417033E0,1.0050051E0,1.0755471E1,1.5856862E0],"tree_param":{"num_deleted":"0","num_feature":"1568","num_nodes":"21","size_leaf_vector":"0"}},{"base_weights":[-4.2575127E-3,4.920228E-2,-2.0510988E-1,1.2221213E-2,5.53419E-1,-2.6276335E-1,1.3034043E0,5.483871E-2,-5.931928E-1,8.358075E-1,-6.210685E-1,-3.535966E-1,4.4712582E-1,4.0364638E-2,1.548201E0,-7.2880334E-1,2.4892074E-1,1.1491703E0,-7.2745246E-1,-7.333768E-1,-1.334932E-1,-3.9656094E-1,1.0130643E0,1.6934499E0,-1.1419261E-1],"categories":[],"categories_nodes":[],"categories_segments":[],"categories_sizes":[],"default_left":[1,1,1,1,1,1,0,1,1,1,1,1,1,0,0,0,0,0,0,0,0,0,0,0,0],"id":16,"left_children":[1,3,5,7,9,11,-1,13,15,17,19,21,23,-1,-1,-1,-1,-1,-1,-1,-1,-1,-1,-1,-1],"loss_changes":[3.7011988E0,5.0707035E0,6.6440535E0,6.604554E0,6.6828012E0,4.711846E0,0E0,5.100938E0,2.104075E0,8.384033E0,1.3076746E-1,4.1108265E0,6.1068077E0,0E0,0E0,0E0,0E0,0E0,0E0,0E0,0E0,0E0,0E0,0E0,0E0],"parents":[2147483647,0,0,1,1,2,2,3,3,4,4,5,5,7,7,8,8,9,9,10,10,11,11,12,12],"right_children":[2,4,6,8,10,12,-1,14,16,18,20,22,24,-1,-1,-1,-1,-1,-1,-1,-1,-1,-1,-1,-1],"split_conditions":[-9.536743E-7,-9.536743E-7,-9.536743E-7,-9.536743E-7,-9.536743E-7,-9.536743E-7,3.910213E-1,-9.536743E-7,-9.536743E-7,-9.536743E-7,-9.536743E-7,-9.536743E-7,-9.536743E-7,1.2109392E-2,4.644603E-1,-2.1864101E-1,7.467622E-2,3.447511E-1,-2.1823575E-1,-2.2001305E-1,-4.0047962E-2,-1.18968286E-1,3.039193E-1,5.08035E-1,-3.4257784E-2],"split_indices":[1195,736,467,327,115,1390,0,1459,533,25,456,844,1288,0,0,0,0,0,0,0,0,0,0,0,0],"split_type":[0,0,0,0,0,0,0,0,0,0,0,0,0,0,0,0,0,0,0,0,0,0,0,0,0],"sum_hessian":[3.427577E2,2.713018E2,7.14559E1,2.5371747E2,1.7584312E1,6.962089E1,1.8350073E0,2.3788147E2,1.5836E1,1.4408388E1,3.1759245E0,6.216812E1,7.4527698E0,2.3661516E2,1.2663087E0,1.3755437E1,2.0805638E0,1.22231E1,2.1852884E0,2.1715896E0,1.004335E0,6.096148E1,1.2066412E0,1.6879697E0,5.7648005E0],"tree_param":{"num_deleted":"0","num_feature":"1568","num_nodes":"25","size_leaf_vector":"0"}},{"base_weights":[-4.3582283E-3,1.2430888E-2,-6.2000877E-1,2.4732076E-2,-8.402318E-1,-8.042425E-1,3.5690838E-1,3.66894E-2,-8.217916E-1,-9.0938795E-1,-7.6686405E-2,5.011111E-2,-7.143082E-1],"categories":[],"categories_nodes":[],"categories_segments":[],"categories_sizes":[],"default_left":[1,1,1,1,0,1,0,1,0,0,0,0,0],"id":17,"left_children":[1,3,5,7,-1,9,-1,11,-1,-1,-1,-1,-1],"loss_changes":[3.5474863E0,3.5277243E0,1.9268284E0,3.376221E0,0E0,5.401664E-1,0E0,3.3310585E0,0E0,0E0,0E0,0E0,0E0],"parents":[2147483647,0,0,1,1,2,2,3,3,5,5,7,7],"right_children":[2,4,6,8,-1,10,-1,12,-1,-1,-1,-1,-1],"split_conditions":[-9.536743E-7,-9.536743E-7,-9.536743E-7,-9.536743E-7,-2.5206953E-1,-9.536743E-7,1.0707252E-1,-9.536743E-7,-2.4653749E-1,-2.728164E-1,-2.3005921E-2,1.5033334E-2,-2.1429247E-1],"split_indices":[885,89,629,211,0,170,0,1461,0,0,0,0,0],"split_type":[0,0,0,0,0,0,0,0,0,0,0,0,0],"sum_hessian":[3.414633E2,3.3335242E2,8.110888E0,3.295688E2,3.7836268E0,6.972686E0,1.1382022E0,3.2592172E2,3.6470547E0,5.873879E0,1.0988066E0,3.2111606E2,4.805661E0],"tree_param":{"num_deleted":"0","num_feature":"1568","num_nodes":"13","size_leaf_vector":"0"}},{"base_weights":[-7.0941914E-3,6.303402E-3,-7.330202E-1,3.186992E-2,-4.015739E-1,-8.5816157E-1,-7.086693E-2,1.89286E-2,9.2752624E-1,-7.3757535E-1,1.14445314E-1,3.1924539E-3,8.065615E-1,1.8752078E0,-6.328251E-1,-8.8638264E-1,4.2063183E-1,9.8469335E-1,-3.669664E-1],"categories":[],"categories_nodes":[],"categories_segments":[],"categories_sizes":[],"default_left":[1,1,1,1,1,0,0,1,1,1,1,0,0,0,0,0,0,0,0],"id":18,"left_children":[1,3,5,7,9,-1,-1,11,13,15,17,-1,-1,-1,-1,-1,-1,-1,-1],"loss_changes":[3.3402495E0,3.5348384E0,4.5489502E-1,3.6770995E0,3.551293E0,0E0,0E0,3.9045272E0,7.869324E0,2.4831624E0,4.027586E0,0E0,0E0,0E0,0E0,0E0,0E0,0E0,0E0],"parents":[2147483647,0,0,1,1,2,2,3,3,4,4,7,7,8,8,9,9,10,10],"right_children":[2,4,6,8,10,-1,-1,12,14,16,18,-1,-1,-1,-1,-1,-1,-1,-1],"split_conditions":[-9.536743E-7,-9.536743E-7,-9.536743E-7,-9.536743E-7,-9.536743E-7,-2.574485E-1,-2.1260079E-2,-9.536743E-7,-9.536743E-7,-9.536743E-7,-9.536743E-7,9.577362E-4,2.4196847E-1,5.6256235E-1,-1.8984753E-1,-2.659148E-1,1.2618956E-1,2.95408E-1,-1.1008992E-1],"split_indices":[842,189,8,1408,14,0,0,461,223,1327,276,0,0,0,0,0,0,0,0],"split_type":[0,0,0,0,0,0,0,0,0,0,0,0,0,0,0,0,0,0,0],"sum_hessian":[3.41972E2,3.3674832E2,5.223665E0,3.1775284E2,1.8995483E1,4.1443934E0,1.0792722E0,3.142336E2,3.5192213E0,1.124442E1,7.751063E0,3.090629E2,5.1707253E0,2.0639145E0,1.4553069E0,1.0172185E1,1.0722355E0,2.3883011E0,5.3627615E0],"tree_param":{"num_deleted":"0","num_feature":"1568","num_nodes":"19","size_leaf_vector":"0"}},{"base_weights":[-6.715242E-3,2.9051995E-2,-2.8144792E-1,5.058842E-2,-8.06476E-1,2.0079651E-1,-6.1595047E-1,3.6467634E-2,1.2786256E0,-9.0850914E-1,-1.07843205E-1,-5.4632723E-2,1.6458306E0,-7.5822324E-1,1.47666E-1,6.0581837E-2,-5.349443E-1,2.9810005E-1,1.7121556E0,-3.0242535E-1,1.4449873E0,-8.9192456E-1,6.497952E-2,-4.5288146E-1,9.729062E-1],"categories":[],"categories_nodes":[],"categories_segments":[],"categories_sizes":[],"default_left":[1,1,1,1,1,1,1,1,1,0,0,1,0,1,1,0,0,0,0,0,0,0,0,0,0],"id":19,"left_children":[1,3,5,7,9,11,13,15,17,-1,-1,19,-1,21,23,-1,-1,-1,-1,-1,-1,-1,-1,-1,-1],"loss_changes":[3.373505E0,5.5098543E0,6.5026593E0,5.1077085E0,4.5064354E-1,6.3461266E0,2.6753263E0,4.095699E0,9.134836E-1,0E0,0E0,6.148989E0,0E0,2.264948E0,2.6919067E0,0E0,0E0,0E0,0E0,0E0,0E0,0E0,0E0,0E0,0E0],"parents":[2147483647,0,0,1,1,2,2,3,3,4,4,5,5,6,6,7,7,8,8,11,11,13,13,14,14],"right_children":[2,4,6,8,10,12,14,16,18,-1,-1,20,-1,22,24,-1,-1,-1,-1,-1,-1,-1,-1,-1,-1],"split_conditions":[-9.536743E-7,-9.536743E-7,-9.536743E-7,-9.536743E-7,-9.536743E-7,-9.536743E-7,-9.536743E-7,-9.536743E-7,-9.536743E-7,-2.7255276E-1,-3.235296E-2,-9.536743E-7,4.937492E-1,-9.536743E-7,-9.536743E-7,1.8174551E-2,-1.604833E-1,8.943002E-2,5.136467E-1,-9.072761E-2,4.334962E-1,-2.6757738E-1,1.9493857E-2,-1.3586444E-1,2.9187188E-1],"split_indices":[1334,787,3,1457,348,1227,1277,1272,261,0,0,1235,0,232,1352,0,0,0,0,0,0,0,0,0,0],"split_type":[0,0,0,0,0,0,0,0,0,0,0,0,0,0,0,0,0,0,0,0,0,0,0,0,0],"sum_hessian":[3.4147726E2,3.029329E2,3.854435E1,2.962366E2,6.6962905E0,1.5949724E1,2.2594624E1,2.93887E2,2.3496125E0,5.5808196E0,1.1154712E0,1.4371552E1,1.5781726E0,1.9052021E1,3.5426035E0,2.8284464E2,1.1042373E1,1.237757E0,1.1118554E0,1.3018712E1,1.3528401E0,1.6318203E1,2.7338185E0,2.3116047E0,1.2309988E0],"tree_param":{"num_deleted":"0","num_feature":"1568","num_nodes":"25","size_leaf_vector":"0"}},{"base_weights":[-5.780186E-3,6.4453436E-3,-7.538951E-1,1.9597257E-2,-8.4603333E-1,-8.204944E-1,-2.2832422E-1,8.942078E-3,9.5401585E-1,2.3901075E-2,-8.719463E-1,1.5492105E0,3.86736E-3],"categories":[],"categories_nodes":[],"categories_segments":[],"categories_sizes":[],"default_left":[1,1,1,1,0,0,0,1,1,0,0,0,0],"id":20,"left_children":[1,3,5,7,-1,-1,-1,9,11,-1,-1,-1,-1],"loss_changes":[3.1273553E0,3.7938547E0,5.101919E-3,3.3045857E0,0E0,0E0,0E0,4.3695874E0,2.1103387E0,0E0,0E0,0E0,0E0],"parents":[2147483647,0,0,1,1,2,2,3,3,7,7,8,8],"right_children":[2,4,6,8,-1,-1,-1,10,12,-1,-1,-1,-1],"split_conditions":[-9.536743E-7,-9.536743E-7,-9.536743E-7,-9.536743E-7,-2.5381002E-1,-2.4614833E-1,-6.849727E-2,-9.536743E-7,-9.536743E-7,7.170323E-3,-2.615839E-1,4.647632E-1,1.160208E-3],"split_indices":[700,341,239,1000,0,0,0,727,564,0,0,0,0],"split_type":[0,0,0,0,0,0,0,0,0,0,0,0,0],"sum_hessian":[3.404019E2,3.35904E2,4.4978848E0,3.3176263E2,4.141372E0,3.4939852E0,1.0038996E0,3.290204E2,2.7422504E0,3.2448297E2,4.537411E0,1.2984062E0,1.4438442E0],"tree_param":{"num_deleted":"0","num_feature":"1568","num_nodes":"13","size_leaf_vector":"0"}},{"base_weights":[-6.4533856E-3,2.1581393E-2,-3.2866943E-1,2.9702154E-3,7.263893E-1,-4.8006722E-1,1.5673196E0,-2.363464E-2,4.667177E-1,1.4244816E0,-1.6619615E-1,-6.185282E-1,6.482914E-1,-4.0339984E-2,9.977982E-1,7.192065E-1,-5.77974E-1,1.0648372E-1,2.0548427E0,9.132404E-1,-7.439158E-1,-7.136695E-1,6.8783563E-1,1.1699653E0,-1.6588226E-1],"categories":[],"categories_nodes":[],"categories_segments":[],"categories_sizes":[],"default_left":[1,1,1,1,1,1,0,1,1,1,1,1,1,0,0,0,0,0,0,0,0,0,0,0,0],"id":21,"left_children":[1,3,5,7,9,11,-1,13,15,17,19,21,23,-1,-1,-1,-1,-1,-1,-1,-1,-1,-1,-1,-1],"loss_changes":[3.0906386E0,4.129407E0,8.613056E0,3.8095288E0,5.283314E0,4.4825697E0,0E0,5.024794E0,4.8344774E0,3.6437645E0,3.4543853E0,3.4466372E0,1.614236E0,0E0,0E0,0E0,0E0,0E0,0E0,0E0,0E0,0E0,0E0,0E0,0E0],"parents":[2147483647,0,0,1,1,2,2,3,3,4,4,5,5,7,7,8,8,9,9,10,10,11,11,12,12],"right_children":[2,4,6,8,10,12,-1,14,16,18,20,22,24,-1,-1,-1,-1,-1,-1,-1,-1,-1,-1,-1,-1],"split_conditions":[-9.536743E-7,-9.536743E-7,-9.536743E-7,-9.536743E-7,-9.536743E-7,-9.536743E-7,4.7019592E-1,-9.536743E-7,-9.536743E-7,-9.536743E-7,-9.536743E-7,-9.536743E-7,-9.536743E-7,-1.2101996E-2,2.9933947E-1,2.1576196E-1,-1.733922E-1,3.1945117E-2,6.164528E-1,2.7397212E-1,-2.2317475E-1,-2.1410085E-1,2.063507E-1,3.5098958E-1,-4.976468E-2],"split_indices":[35,958,246,316,175,699,0,841,455,133,200,58,1253,0,0,0,0,0,0,0,0,0,0,0,0],"split_type":[0,0,0,0,0,0,0,0,0,0,0,0,0,0,0,0,0,0,0,0,0,0,0,0,0],"sum_hessian":[3.4035486E2,3.1397052E2,2.6384344E1,3.0687146E2,7.099042E0,2.512488E1,1.259464E0,2.911192E2,1.5752262E1,3.6491396E0,3.4499025E0,2.2781229E1,2.3436515E0,2.8737967E2,3.7395341E0,1.2937091E1,2.8151712E0,1.5588092E0,2.0903304E0,1.000241E0,2.4496613E0,2.1657621E1,1.1236079E0,1.1620697E0,1.1815819E0],"tree_param":{"num_deleted":"0","num_feature":"1568","num_nodes":"25","size_leaf_vector":"0"}},{"base_weights":[-3.3013423E-3,1.0687475E-2,-6.4807457E-1,6.3937645E-5,8.535398E-1,-1.1234803E-1,-8.6111325E-1,1.673064E-2,-6.40564E-1,-5.55986E-2,1.7415311E0,-5.646776E-1,3.9336294E-1,3.7434712E-2,-5.1991355E-1,-9.146793E-1,1.5644711E-1,-5.3305155E-1,4.4873473E-1],"categories":[],"categories_nodes":[],"categories_segments":[],"categories_sizes":[],"default_left":[1,1,1,1,1,1,0,1,1,1,0,0,0,0,0,0,0,0,0],"id":22,"left_children":[1,3,5,7,9,11,-1,13,15,17,-1,-1,-1,-1,-1,-1,-1,-1,-1],"loss_changes":[3.0682354E0,2.9832835E0,7.2767806E-1,3.5345526E0,3.4448662E0,9.5532393E-1,0E0,3.6042378E0,1.976959E0,9.65979E-1,0E0,0E0,0E0,0E0,0E0,0E0,0E0,0E0,0E0],"parents":[2147483647,0,0,1,1,2,2,3,3,4,4,5,5,7,7,8,8,9,9],"right_children":[2,4,6,8,10,12,-1,14,16,18,-1,-1,-1,-1,-1,-1,-1,-1,-1],"split_conditions":[-9.536743E-7,-9.536743E-7,-9.536743E-7,-9.536743E-7,-9.536743E-7,-9.536743E-7,-2.5833398E-1,-9.536743E-7,-9.536743E-7,-9.536743E-7,5.224594E-1,-1.6940328E-1,1.1800889E-1,1.1230414E-2,-1.5597408E-1,-2.744038E-1,4.6934135E-2,-1.5991548E-1,1.3462043E-1],"split_indices":[990,771,116,472,1213,160,0,1503,239,1177,0,0,0,0,0,0,0,0,0],"split_type":[0,0,0,0,0,0,0,0,0,0,0,0,0,0,0,0,0,0,0],"sum_hessian":[3.3840573E2,3.3218225E2,6.223507E0,3.2903506E2,3.1471705E0,2.2052767E0,4.0182304E0,3.2164108E2,7.393994E0,2.0182476E0,1.1289228E0,1.1025275E0,1.1027492E0,3.1058862E2,1.1052462E1,5.391919E0,2.0020745E0,1.0075017E0,1.0107459E0],"tree_param":{"num_deleted":"0","num_feature":"1568","num_nodes":"19","size_leaf_vector":"0"}},{"base_weights":[-4.5126546E-3,5.670762E-3,-8.127036E-1,1.839789E-2,-6.451787E-1,3.0962916E-3,6.2768996E-1,-8.723116E-1,2.8605998E-1,1.8981764E-2,-6.716561E-1,8.737788E-1,-5.4660815E-1],"categories":[],"categories_nodes":[],"categories_segments":[],"categories_sizes":[],"default_left":[1,1,0,1,1,1,1,0,0,0,0,0,0],"id":23,"left_children":[1,3,-1,5,7,9,11,-1,-1,-1,-1,-1,-1],"loss_changes":[2.798806E0,2.797394E0,0E0,3.08214E0,1.6195929E0,3.4824076E0,2.818109E0,0E0,0E0,0E0,0E0,0E0,0E0],"parents":[2147483647,0,0,1,1,3,3,4,4,5,5,6,6],"right_children":[2,4,-1,6,8,10,12,-1,-1,-1,-1,-1,-1],"split_conditions":[-9.536743E-7,-9.536743E-7,-2.4381109E-1,-9.536743E-7,-9.536743E-7,-9.536743E-7,-9.536743E-7,-2.6169348E-1,8.581799E-2,5.6945295E-3,-2.0149682E-1,2.6213366E-1,-1.6398245E-1],"split_indices":[1087,1385,0,1500,375,1040,541,0,0,0,0,0,0],"split_type":[0,0,0,0,0,0,0,0,0,0,0,0,0],"sum_hessian":[3.3850766E2,3.3527606E2,3.2315824E0,3.297987E2,5.4773636E0,3.226996E2,7.09911E0,4.454235E0,1.0231282E0,3.1622665E2,6.4729505E0,6.080731E0,1.0183792E0],"tree_param":{"num_deleted":"0","num_feature":"1568","num_nodes":"13","size_leaf_vector":"0"}},{"base_weights":[-6.0175373E-3,3.8556964E-3,-8.1127495E-1,-6.354247E-2,1.24795936E-1,-9.3974225E-2,9.8832136E-1,4.3066573E-1,-1.1675928E-1,-1.2501186E-1,7.0456386E-1,1.469613E0,-2.8524017E-1,3.1510192E-1,1.8900845E0,-1.6101326E-1,1.4031811E0],"categories":[],"categories_nodes":[],"categories_segments":[],"categories_sizes":[],"default_left":[1,1,0,1,1,1,1,1,1,0,0,0,0,0,0,0,0],"id":24,"left_children":[1,3,-1,5,7,9,11,13,15,-1,-1,-1,-1,-1,-1,-1,-1],"loss_changes":[2.7005172E0,2.748012E0,0E0,7.0238504E0,8.963269E0,5.326329E0,4.2042036E0,8.418077E0,4.8126335E0,0E0,0E0,0E0,0E0,0E0,0E0,0E0,0E0],"parents":[2147483647,0,0,1,1,3,3,4,4,5,5,6,6,7,7,8,8],"right_children":[2,4,-1,6,8,10,12,14,16,-1,-1,-1,-1,-1,-1,-1,-1],"split_conditions":[-9.536743E-7,-9.536743E-7,-2.433825E-1,-9.536743E-7,-9.536743E-7,-9.536743E-7,-9.536743E-7,-9.536743E-7,-9.536743E-7,-3.750356E-2,2.1136917E-1,4.408839E-1,-8.557206E-2,9.453058E-2,5.6702536E-1,-4.830398E-2,4.2095435E-1],"split_indices":[957,12,0,117,160,165,129,274,1173,0,0,0,0,0,0,0,0],"split_type":[0,0,0,0,0,0,0,0,0,0,0,0,0,0,0,0,0],"sum_hessian":[3.3827313E2,3.3515897E2,3.1141608E0,2.1552483E2,1.19634125E2,2.1034981E2,5.175028E0,5.2443962E1,6.719016E1,2.0329169E2,7.058109E0,3.6439886E0,1.5310392E0,4.9722595E1,2.7213664E0,6.6158E1,1.0321637E0],"tree_param":{"num_deleted":"0","num_feature":"1568","num_nodes":"17","size_leaf_vector":"0"}},{"base_weights":[-4.38287E-3,7.0716003E-3,-7.227456E-1,1.8974561E-2,-7.0712036E-1,-1.7409706E-1,-8.1086844E-1,8.05691E-3,7.606008E-1,-8.33708E-1,-7.6785505E-2,2.7914414E-2,-5.933936E-1,1.4584403E0,-3.7779468E-1],"categories":[],"categories_nodes":[],"categories_segments":[],"categories_sizes":[],"default_left":[1,1,1,1,1,0,0,1,1,0,0,0,0,0,0],"id":25,"left_children":[1,3,5,7,9,-1,-1,11,13,-1,-1,-1,-1,-1,-1],"loss_changes":[2.789866E0,2.8536706E0,1.16108656E-1,2.6626227E0,3.7509847E-1,0E0,0E0,3.908098E0,4.3412285E0,0E0,0E0,0E0,0E0,0E0,0E0],"parents":[2147483647,0,0,1,1,2,2,3,3,4,4,7,7,8,8],"right_children":[2,4,6,8,10,-1,-1,12,14,-1,-1,-1,-1,-1,-1],"split_conditions":[-9.536743E-7,-9.536743E-7,-9.536743E-7,-9.536743E-7,-9.536743E-7,-5.222912E-2,-2.4326055E-1,-9.536743E-7,-9.536743E-7,-2.501124E-1,-2.3035653E-2,8.374325E-3,-1.780181E-1,4.375321E-1,-1.1333841E-1],"split_indices":[347,855,220,870,68,0,0,853,141,0,0,0,0,0,0],"split_type":[0,0,0,0,0,0,0,0,0,0,0,0,0,0,0],"sum_hessian":[3.374295E2,3.331082E2,4.321336E0,3.2860498E2,4.5032077E0,1.0098261E0,3.3115098E0,3.2483386E2,3.7710907E0,3.4814076E0,1.0218003E0,3.1537503E2,9.458841E0,2.163638E0,1.6074528E0],"tree_param":{"num_deleted":"0","num_feature":"1568","num_nodes":"15","size_leaf_vector":"0"}},{"base_weights":[-5.761495E-3,5.388722E-3,-6.972631E-1,2.070688E-2,-5.145061E-1,-8.258131E-1,-7.074871E-2,8.612023E-3,7.568058E-1,-8.175215E-1,6.169078E-1,2.3275532E-2,-7.743234E-1,1.4477164E0,-1.8462752E-1,-9.316401E-2,-9.219923E-1],"categories":[],"categories_nodes":[],"categories_segments":[],"categories_sizes":[],"default_left":[1,1,1,1,1,0,0,1,1,1,0,0,0,0,0,0,0],"id":26,"left_children":[1,3,5,7,9,-1,-1,11,13,15,-1,-1,-1,-1,-1,-1,-1],"loss_changes":[2.6144757E0,2.672298E0,3.749354E-1,2.8924124E0,3.7969968E0,0E0,0E0,3.7074249E0,3.683527E0,5.1990795E-1,0E0,0E0,0E0,0E0,0E0,0E0,0E0],"parents":[2147483647,0,0,1,1,2,2,3,3,4,4,7,7,8,8,9,9],"right_children":[2,4,6,8,10,-1,-1,12,14,16,-1,-1,-1,-1,-1,-1,-1],"split_conditions":[-9.536743E-7,-9.536743E-7,-9.536743E-7,-9.536743E-7,-9.536743E-7,-2.4774395E-1,-2.1224614E-2,-9.536743E-7,-9.536743E-7,-9.536743E-7,1.8507233E-1,6.98266E-3,-2.3229703E-1,4.3431494E-1,-5.5388257E-2,-2.7949205E-2,-2.765977E-1],"split_indices":[838,909,437,1098,431,0,0,893,564,123,0,0,0,0,0,0,0],"split_type":[0,0,0,0,0,0,0,0,0,0,0,0,0,0,0,0,0],"sum_hessian":[3.3759732E2,3.3321655E2,4.3807907E0,3.2461237E2,8.604193E0,3.37101E0,1.0097805E0,3.203602E2,4.2521462E0,7.005431E0,1.5987618E0,3.1542294E2,4.9372497E0,2.1422133E0,2.109933E0,1.1214598E0,5.883971E0],"tree_param":{"num_deleted":"0","num_feature":"1568","num_nodes":"17","size_leaf_vector":"0"}}]},"name":"gbtree"},"learner_model_param":{"base_score":"6.25E-2","num_class":"0","num_feature":"1568","num_target":"1"},"objective":{"name":"binary:logistic","reg_loss_param":{"scale_pos_weight":"1"}}},"version":[1,6,0]}